{"learner":{"attributes":{"scikit_learn":"{\"_estimator_type\": \"classifier\"}"},"feature_names":["Gender","Age","Height","Weight","family_history_with_overweight","FAVC","FCVC","NCP","SMOKE","CH2O","SCC","FAF","TUE","CAEC_Always","CAEC_Frequently","CAEC_Sometimes","CAEC_no","CALC_Always","CALC_Frequently","CALC_Sometimes","CALC_no","MTRANS_Automobile","MTRANS_Bike","MTRANS_Motorbike","MTRANS_Public_Transportation","MTRANS_Walking"],"feature_types":["float","float","float","float","float","float","float","float","float","float","float","float","float","float","float","float","float","float","float","float","float","float","float","float","float","float"],"gradient_booster":{"model":{"gbtree_model_param":{"num_parallel_tree":"1","num_trees":"679"},"iteration_indptr":[0,7,14,21,28,35,42,49,56,63,70,77,84,91,98,105,112,119,126,133,140,147,154,161,168,175,182,189,196,203,210,217,224,231,238,245,252,259,266,273,280,287,294,301,308,315,322,329,336,343,350,357,364,371,378,385,392,399,406,413,420,427,434,441,448,455,462,469,476,483,490,497,504,511,518,525,532,539,546,553,560,567,574,581,588,595,602,609,616,623,630,637,644,651,658,665,672,679],"tree_info":[0,1,2,3,4,5,6,0,1,2,3,4,5,6,0,1,2,3,4,5,6,0,1,2,3,4,5,6,0,1,2,3,4,5,6,0,1,2,3,4,5,6,0,1,2,3,4,5,6,0,1,2,3,4,5,6,0,1,2,3,4,5,6,0,1,2,3,4,5,6,0,1,2,3,4,5,6,0,1,2,3,4,5,6,0,1,2,3,4,5,6,0,1,2,3,4,5,6,0,1,2,3,4,5,6,0,1,2,3,4,5,6,0,1,2,3,4,5,6,0,1,2,3,4,5,6,0,1,2,3,4,5,6,0,1,2,3,4,5,6,0,1,2,3,4,5,6,0,1,2,3,4,5,6,0,1,2,3,4,5,6,0,1,2,3,4,5,6,0,1,2,3,4,5,6,0,1,2,3,4,5,6,0,1,2,3,4,5,6,0,1,2,3,4,5,6,0,1,2,3,4,5,6,0,1,2,3,4,5,6,0,1,2,3,4,5,6,0,1,2,3,4,5,6,0,1,2,3,4,5,6,0,1,2,3,4,5,6,0,1,2,3,4,5,6,0,1,2,3,4,5,6,0,1,2,3,4,5,6,0,1,2,3,4,5,6,0,1,2,3,4,5,6,0,1,2,3,4,5,6,0,1,2,3,4,5,6,0,1,2,3,4,5,6,0,1,2,3,4,5,6,0,1,2,3,4,5,6,0,1,2,3,4,5,6,0,1,2,3,4,5,6,0,1,2,3,4,5,6,0,1,2,3,4,5,6,0,1,2,3,4,5,6,0,1,2,3,4,5,6,0,1,2,3,4,5,6,0,1,2,3,4,5,6,0,1,2,3,4,5,6,0,1,2,3,4,5,6,0,1,2,3,4,5,6,0,1,2,3,4,5,6,0,1,2,3,4,5,6,0,1,2,3,4,5,6,0,1,2,3,4,5,6,0,1,2,3,4,5,6,0,1,2,3,4,5,6,0,1,2,3,4,5,6,0,1,2,3,4,5,6,0,1,2,3,4,5,6,0,1,2,3,4,5,6,0,1,2,3,4,5,6,0,1,2,3,4,5,6,0,1,2,3,4,5,6,0,1,2,3,4,5,6,0,1,2,3,4,5,6,0,1,2,3,4,5,6,0,1,2,3,4,5,6,0,1,2,3,4,5,6,0,1,2,3,4,5,6,0,1,2,3,4,5,6,0,1,2,3,4,5,6,0,1,2,3,4,5,6,0,1,2,3,4,5,6,0,1,2,3,4,5,6,0,1,2,3,4,5,6,0,1,2,3,4,5,6,0,1,2,3,4,5,6,0,1,2,3,4,5,6,0,1,2,3,4,5,6,0,1,2,3,4,5,6,0,1,2,3,4,5,6,0,1,2,3,4,5,6,0,1,2,3,4,5,6,0,1,2,3,4,5,6,0,1,2,3,4,5,6,0,1,2,3,4,5,6,0,1,2,3,4,5,6,0,1,2,3,4,5,6,0,1,2,3,4,5,6,0,1,2,3,4,5,6,0,1,2,3,4,5,6,0,1,2,3,4,5,6],"trees":[{"base_weights":[-8.194557E-3,2.208413E0,-5.427179E-1,1.261484E0,3.2307692E0,3.9293137E-1,-5.7142854E-1,2.9437835E0,-2.0271493E-1,8.077588E-1,1.4108378E-1,-1.23684704E-1,5.876993E-1,-1.4107397E-1,-2.7383864E-1,7.506345E-1,1.4108378E-1,-1.0941395E-1,2.2047499E-1,1.4108378E-1,-1.2239837E-1],"categories":[],"categories_nodes":[],"categories_segments":[],"categories_sizes":[],"default_left":[0,0,0,0,0,0,0,0,0,0,0,0,0,0,0,0,0,0,0,0,0],"id":0,"left_children":[1,3,5,7,9,11,13,15,17,-1,-1,-1,-1,-1,19,-1,-1,-1,-1,-1,-1],"loss_changes":[4.5561646E2,6.825528E1,8.547173E0,1.0018128E2,5.425873E0,1.901208E1,4.2513275E-1,4.0892487E0,6.5282555E0,0E0,0E0,0E0,0E0,0E0,1.9080334E0,0E0,0E0,0E0,0E0,0E0,0E0],"parents":[2147483647,0,0,1,1,2,2,3,3,4,4,5,5,6,6,7,7,8,8,14,14],"right_children":[2,4,6,8,10,12,14,16,18,-1,-1,-1,-1,-1,20,-1,-1,-1,-1,-1,-1],"split_conditions":[-9.9885726E-1,-4.3826833E-1,-9.231751E-1,-1.4860721E0,2.1914427E0,1.0785604E0,1.9216392E0,-1.2648161E-1,3.89999E-1,8.077588E-1,1.4108378E-1,-1.23684704E-1,5.876993E-1,-1.4107397E-1,-7.358862E-2,7.506345E-1,1.4108378E-1,-1.0941395E-1,2.2047499E-1,1.4108378E-1,-1.2239837E-1],"split_indices":[3,2,3,3,11,2,2,1,7,0,0,0,0,0,3,0,0,0,0,0,0],"split_type":[0,0,0,0,0,0,0,0,0,0,0,0,0,0,0,0,0,0,0,0,0],"sum_hessian":[3.8253064E2,7.3714294E1,3.0881635E2,3.9428574E1,3.4285717E1,8.816327E0,3.0000003E2,1.7877552E1,2.1551022E1,3.3061226E1,1.2244899E0,6.6122456E0,2.2040818E0,2.9265308E2,7.346939E0,1.6653063E1,1.2244899E0,1.812245E1,3.4285717E0,1.2244899E0,6.1224494E0],"tree_param":{"num_deleted":"0","num_feature":"26","num_nodes":"21","size_leaf_vector":"1"}},{"base_weights":[-4.053838E-2,8.336755E-1,-2.353326E-1,3.7433136E-2,1.2996742E0,1.0672646E0,-3.8208607E-1,-3.121903E-1,1.0429798E0,5.6815815E-1,1.8164914E0,1.8479196E0,4.1401967E-1,-4.1891792E-1,1.7717842E0,3.1066928E-2,-1.3202292E-1,4.0522084E-1,-9.427207E-2,3.46062E-1,-1.271229E-1,5.246113E-1,1.7512798E-1,4.91579E-1,1.819897E-1,4.6261236E-1,-1.8648637E-2,2.5276348E-1,-1.06340505E-1,5.3585863E-1,1.1297066E-1],"categories":[],"categories_nodes":[],"categories_segments":[],"categories_sizes":[],"default_left":[0,0,0,0,0,0,0,0,0,0,0,0,0,0,0,0,0,0,0,0,0,0,0,0,0,0,0,0,0,0,0],"id":1,"left_children":[1,3,5,7,9,11,13,15,17,19,21,23,25,27,29,-1,-1,-1,-1,-1,-1,-1,-1,-1,-1,-1,-1,-1,-1,-1,-1],"loss_changes":[6.5007866E1,2.5765678E1,6.0053818E1,9.717356E0,1.5548584E1,1.5480759E1,2.30472E1,2.1381657E0,6.922777E0,1.888218E1,7.6888123E0,1.1006432E0,1.3679473E1,7.1971817E0,1.710391E0,0E0,0E0,0E0,0E0,0E0,0E0,0E0,0E0,0E0,0E0,0E0,0E0,0E0,0E0,0E0,0E0],"parents":[2147483647,0,0,1,1,2,2,3,3,4,4,5,5,6,6,7,7,8,8,9,9,10,10,11,11,12,12,13,13,14,14],"right_children":[2,4,6,8,10,12,14,16,18,20,22,24,26,28,30,-1,-1,-1,-1,-1,-1,-1,-1,-1,-1,-1,-1,-1,-1,-1,-1],"split_conditions":[1E0,3.8415456E-1,1E0,-7.801153E-1,-1.43184615E-2,-5.1212007E-1,1E0,-7.7077955E-1,-2.1846366E0,-1.6626832E0,-8.480202E-3,3.89999E-1,1E0,-2.571412E0,4.14496E-1,3.1066928E-2,-1.3202292E-1,4.0522084E-1,-9.427207E-2,3.46062E-1,-1.271229E-1,5.246113E-1,1.7512798E-1,4.91579E-1,1.819897E-1,4.6261236E-1,-1.8648637E-2,2.5276348E-1,-1.06340505E-1,5.3585863E-1,1.1297066E-1],"split_indices":[4,7,15,2,9,1,25,6,7,9,9,7,5,6,2,0,0,0,0,0,0,0,0,0,0,0,0,0,0,0,0],"split_type":[0,0,0,0,0,0,0,0,0,0,0,0,0,0,0,0,0,0,0,0,0,0,0,0,0,0,0,0,0,0,0],"sum_hessian":[3.7959186E2,6.8571434E1,3.1102042E2,2.5714287E1,4.2857147E1,3.0857145E1,2.801633E2,1.9591839E1,6.1224494E0,1.8612246E1,2.42449E1,1.3224491E1,1.7632654E1,2.762449E2,3.9183676E0,6.8571434E0,1.27346945E1,4.1632657E0,1.9591838E0,1.0285715E1,8.326531E0,1.7877552E1,6.3673472E0,1.0775511E1,2.4489799E0,3.6734695E0,1.3959185E1,2.4489799E0,2.7379593E2,2.4489799E0,1.4693879E0],"tree_param":{"num_deleted":"0","num_feature":"26","num_nodes":"31","size_leaf_vector":"1"}},{"base_weights":[-1.8228194E-2,3.6150533E-1,-5.665917E-1,-4.3602386E-1,7.907826E-1,-1.627907E-1,-1.414355E-1,1.4682926E0,-5.3583986E-1,1.2170576E0,2.9558523E-2,-1.1343942E-1,1.4108378E-1,5.395835E-1,1.412133E-2,-1.4027646E-1,-4.60768E-2,4.3662176E-1,1.5122384E-1,-6.299644E-2,3.4397957E-1],"categories":[],"categories_nodes":[],"categories_segments":[],"categories_sizes":[],"default_left":[0,0,0,0,0,0,0,0,0,0,0,0,0,0,0,0,0,0,0,0,0],"id":2,"left_children":[1,3,5,7,9,11,-1,13,15,17,19,-1,-1,-1,-1,-1,-1,-1,-1,-1,-1],"loss_changes":[7.8538315E1,7.664942E1,7.0515823E-1,1.5733361E1,4.709465E1,1.6425692E0,0E0,4.2519093E0,9.084606E-1,3.0687439E1,2.1460682E1,0E0,0E0,0E0,0E0,0E0,0E0,0E0,0E0,0E0,0E0],"parents":[2147483647,0,0,1,1,2,2,3,3,4,4,5,5,7,7,8,8,9,9,10,10],"right_children":[2,4,6,8,10,12,-1,14,16,18,20,-1,-1,-1,-1,-1,-1,-1,-1,-1,-1],"split_conditions":[1.3606045E-1,-9.610162E-1,1.581696E-1,-1.956864E0,1E0,9.790229E-1,-1.414355E-1,-8.27059E-1,1E0,-3.9339975E-1,5.321547E-1,-1.1343942E-1,1.4108378E-1,5.395835E-1,1.412133E-2,-1.4027646E-1,-4.60768E-2,4.3662176E-1,1.5122384E-1,-6.299644E-2,3.4397957E-1],"split_indices":[3,3,3,2,20,2,0,1,10,3,2,0,0,0,0,0,0,0,0,0,0],"split_type":[0,0,0,0,0,0,0,0,0,0,0,0,0,0,0,0,0,0,0,0,0],"sum_hessian":[3.751837E2,2.2187756E2,1.5330614E2,7.763266E1,1.442449E2,5.1428576E0,1.4816327E2,3.1836736E0,7.444898E1,9.208164E1,5.216327E1,3.9183676E0,1.2244899E0,1.7142859E0,1.4693879E0,6.6367355E1,8.081634E0,4.604082E1,4.604082E1,4.383674E1,8.326531E0],"tree_param":{"num_deleted":"0","num_feature":"26","num_nodes":"21","size_leaf_vector":"1"}},{"base_weights":[-5.0819423E-2,-1.5399742E-1,6.193702E-1,6.4551306E-1,-2.6620063E-1,2.9787216E-2,1.6484118E0,2.1265821E0,8.327823E-2,6.7154735E-2,-3.919946E-1,-3.2759807E-1,5.317473E-1,-2.9056603E-1,2.2697272E0,1.7706538E-2,6.9349897E-1,2.2209893E-1,-9.8878E-2,-1.15530625E-1,1.5273127E-1,-1.0438489E-1,1.2548449E-2,1.7986119E-1,-1.0234614E-1,-1.08355395E-1,3.1351946E-2,-9.794988E-2,6.817319E-1],"categories":[],"categories_nodes":[],"categories_segments":[],"categories_sizes":[],"default_left":[0,0,0,0,0,0,0,0,0,0,0,0,0,0,0,0,0,0,0,0,0,0,0,0,0,0,0,0,0],"id":3,"left_children":[1,3,5,7,9,11,13,15,17,19,21,23,-1,25,27,-1,-1,-1,-1,-1,-1,-1,-1,-1,-1,-1,-1,-1,-1],"loss_changes":[2.6531404E1,2.9963928E1,3.1016697E1,3.4099915E1,1.2268513E1,2.6492846E1,2.3106575E1,1.6356842E1,1.2833034E1,2.469801E1,3.3739662E0,3.202917E0,0E0,4.044837E-1,2.0996773E1,0E0,0E0,0E0,0E0,0E0,0E0,0E0,0E0,0E0,0E0,0E0,0E0,0E0,0E0],"parents":[2147483647,0,0,1,1,2,2,3,3,4,4,5,5,6,6,7,7,8,8,9,9,10,10,11,11,13,13,14,14],"right_children":[2,4,6,8,10,12,14,16,18,20,22,24,-1,26,28,-1,-1,-1,-1,-1,-1,-1,-1,-1,-1,-1,-1,-1,-1],"split_conditions":[1.1134222E0,1E0,1E0,-1.301203E0,3.728114E-1,1.1808236E0,-1.6245221E0,1E0,-6.7136145E-1,-3.4019607E-1,1.5648305E0,-2.1846366E0,5.317473E-1,2.4831946E0,-5.78153E-1,1.7706538E-2,6.9349897E-1,2.2209893E-1,-9.8878E-2,-1.15530625E-1,1.5273127E-1,-1.0438489E-1,1.2548449E-2,1.7986119E-1,-1.0234614E-1,-1.08355395E-1,3.1351946E-2,-9.794988E-2,6.817319E-1],"split_indices":[1,5,20,2,7,2,9,4,1,2,9,7,0,1,2,0,0,0,0,0,0,0,0,0,0,0,0,0,0],"split_type":[0,0,0,0,0,0,0,0,0,0,0,0,0,0,0,0,0,0,0,0,0,0,0,0,0,0,0,0,0],"sum_hessian":[3.8130615E2,3.3110205E2,5.0204086E1,4.016327E1,2.9093878E2,3.257143E1,1.7632654E1,1.0285715E1,2.9877554E1,7.983674E1,2.1110205E2,2.8653063E1,3.9183676E0,4.4081635E0,1.3224491E1,2.9387758E0,7.346939E0,1.0775511E1,1.9102041E1,4.0653065E1,3.9183678E1,1.9542859E2,1.56734705E1,1.7142859E0,2.6938778E1,3.1836736E0,1.2244899E0,2.2040818E0,1.1020409E1],"tree_param":{"num_deleted":"0","num_feature":"26","num_nodes":"29","size_leaf_vector":"1"}},{"base_weights":[1.18918315E-1,3.7758857E-1,-3.7323177E-1,-5.2724856E-1,5.7977813E-1,-4.6804088E-1,4.2454156E-1,-1.3910675E-1,1.1602208E-1,1.4499061E0,2.622751E-1,-1.37031E-1,-5.0259167E-1,-2.1829522E-1,1.4657038E0,1.1297066E-1,-7.837988E-2,8.791157E-2,5.162398E-1,-4.788014E-3,2.388391E-1,-1.06590696E-1,2.6979175E-1,-7.264543E-2,-1.3490678E-1,-9.608721E-2,1.1297066E-1,-7.837988E-2,4.9606875E-1],"categories":[],"categories_nodes":[],"categories_segments":[],"categories_sizes":[],"default_left":[0,0,0,0,0,0,0,0,0,0,0,0,0,0,0,0,0,0,0,0,0,0,0,0,0,0,0,0,0],"id":4,"left_children":[1,3,5,7,9,11,13,-1,15,17,19,21,23,25,27,-1,-1,-1,-1,-1,-1,-1,-1,-1,-1,-1,-1,-1,-1],"loss_changes":[4.846731E1,4.5919647E1,1.0128653E1,1.3293505E0,5.6051758E1,1.2785549E0,1.0004281E1,0E0,7.0855963E-1,3.8651726E1,3.0479134E1,5.13948E0,9.269085E-1,1.3545487E0,6.3752766E0,0E0,0E0,0E0,0E0,0E0,0E0,0E0,0E0,0E0,0E0,0E0,0E0,0E0,0E0],"parents":[2147483647,0,0,1,1,2,2,3,3,4,4,5,5,6,6,8,8,9,9,10,10,11,11,12,12,13,13,14,14],"right_children":[2,4,6,8,10,12,14,-1,16,18,20,22,24,26,28,-1,-1,-1,-1,-1,-1,-1,-1,-1,-1,-1,-1,-1,-1],"split_conditions":[9.7508925E-1,1E0,5.740512E-1,4.8789766E-1,-4.6587035E-1,-1.3776952E0,-1.721322E-2,-1.3910675E-1,1E0,-3.4217468E-1,5.12689E-1,1.0663017E0,-1.0827174E0,1.6005396E0,1E0,1.1297066E-1,-7.837988E-2,8.791157E-2,5.162398E-1,-4.788014E-3,2.388391E-1,-1.06590696E-1,2.6979175E-1,-7.264543E-2,-1.3490678E-1,-9.608721E-2,1.1297066E-1,-7.837988E-2,4.9606875E-1],"split_indices":[6,4,12,1,2,7,11,0,19,1,9,9,12,9,4,0,0,0,0,0,0,0,0,0,0,0,0,0,0],"split_type":[0,0,0,0,0,0,0,0,0,0,0,0,0,0,0,0,0,0,0,0,0,0,0,0,0,0,0,0,0],"sum_hessian":[3.7861227E2,2.4832655E2,1.3028572E2,4.5061226E1,2.0326532E2,1.1681634E2,1.3469389E1,4.236735E1,2.6938777E0,5.338776E1,1.4987756E2,1.1510205E1,1.0530613E2,8.816327E0,4.6530614E0,1.4693879E0,1.2244899E0,2.0816328E1,3.257143E1,1.082449E2,4.1632656E1,9.795919E0,1.7142859E0,2.2040817E1,8.326531E1,7.346939E0,1.4693879E0,1.2244899E0,3.4285717E0],"tree_param":{"num_deleted":"0","num_feature":"26","num_nodes":"29","size_leaf_vector":"1"}},{"base_weights":[-3.547614E-2,-4.070143E-1,1.519724E0,-5.7283807E-1,2.3281594E-1,3.1230767E0,-2.1129122E-1,-1.4080416E-1,-1.24260366E-1,-4.6211785E-1,1.873551E0,3.4146328E-2,8.301285E-1,-1.380538E-1,5.670732E-1,-7.837988E-2,3.1351946E-2,2.1181999E-1,-1.2824884E-1,-9.4687626E-2,7.846855E-1,-9.427207E-2,1.4108378E-1],"categories":[],"categories_nodes":[],"categories_segments":[],"categories_sizes":[],"default_left":[0,0,0,0,0,0,0,0,0,0,0,0,0,0,0,0,0,0,0,0,0,0,0],"id":5,"left_children":[1,3,5,7,9,11,13,-1,15,17,19,21,-1,-1,-1,-1,-1,-1,-1,-1,-1,-1,-1],"loss_changes":[2.2166273E2,3.2978607E1,2.0598494E2,3.697586E-1,7.432741E1,3.2886658E1,3.409617E1,0E0,2.1280059E-1,4.3323774E0,5.9984764E1,1.1796205E0,0E0,0E0,0E0,0E0,0E0,0E0,0E0,0E0,0E0,0E0,0E0],"parents":[2147483647,0,0,1,1,2,2,3,3,4,4,5,5,6,6,8,8,9,9,10,10,11,11],"right_children":[2,4,6,8,10,12,14,-1,16,18,20,22,-1,-1,-1,-1,-1,-1,-1,-1,-1,-1,-1],"split_conditions":[9.6887976E-1,4.5579723E-1,1.0895194E0,4.1828206E-1,1E0,-3.0400693E-1,1.3093529E0,-1.4080416E-1,-9.477708E-3,-1.6626832E0,-5.329265E-1,-4.7528338E-1,8.301285E-1,-1.380538E-1,5.670732E-1,-7.837988E-2,3.1351946E-2,2.1181999E-1,-1.2824884E-1,-9.4687626E-2,7.846855E-1,-9.427207E-2,1.4108378E-1],"split_indices":[3,3,6,3,20,1,2,0,1,9,6,1,0,0,0,0,0,0,0,0,0,0,0],"split_type":[0,0,0,0,0,0,0,0,0,0,0,0,0,0,0,0,0,0,0,0,0,0,0],"sum_hessian":[3.8155106E2,3.0857144E2,7.29796E1,2.4514287E2,6.3428577E1,3.746939E1,3.551021E1,2.426939E2,2.4489799E0,4.5061226E1,1.8367348E1,3.1836736E0,3.4285717E1,3.1836737E1,3.6734695E0,1.2244899E0,1.2244899E0,1.4693879E0,4.359184E1,7.1020412E0,1.1265306E1,1.9591838E0,1.2244899E0],"tree_param":{"num_deleted":"0","num_feature":"26","num_nodes":"23","size_leaf_vector":"1"}},{"base_weights":[5.791649E-2,-1.4184523E-1,1.4544988E0,-1.397362E-1,3.058895E0,-1.03842504E-1,3.2117646E0,8.2073176E-1,-1.011054E-1],"categories":[],"categories_nodes":[],"categories_segments":[],"categories_sizes":[],"default_left":[0,0,0,0,0,0,0,0,0],"id":6,"left_children":[1,-1,3,-1,5,-1,7,-1,-1],"loss_changes":[3.3984518E2,0E0,3.904702E2,0E0,3.6988342E1,0E0,3.6429688E1,0E0,0E0],"parents":[2147483647,0,0,2,2,4,4,6,6],"right_children":[2,-1,4,-1,6,-1,8,-1,-1],"split_conditions":[1.0895194E0,-1.4184523E-1,5.353715E-1,-1.397362E-1,-1.0827174E0,-1.03842504E-1,5.740512E-1,8.2073176E-1,-1.011054E-1],"split_indices":[6,0,3,0,12,0,12,0,0],"split_type":[0,0,0,0,0,0,0,0,0],"sum_hessian":[3.7885718E2,2.6032654E2,1.18530624E2,5.2653065E1,6.5877556E1,2.6938777E0,6.3183678E1,6.07347E1,2.4489799E0],"tree_param":{"num_deleted":"0","num_feature":"26","num_nodes":"9","size_leaf_vector":"1"}},{"base_weights":[-3.1838223E-2,1.2973533E0,-5.315491E-1,1.5492665E0,7.548704E-1,2.0571046E-1,-5.557575E-1,1.5830334E0,6.453635E-2,-2.8974384E-1,1.2399259E0,-1.1728176E-1,1.1440787E0,-3.509126E-1,-1.383878E-1,8.921434E-2,3.9722207E-1,3.2759756E-2,-1.241297E-1,-5.7432327E-2,3.633234E-1,3.391604E-1,4.59544E-2,-1.2873647E-1,1.11107096E-1],"categories":[],"categories_nodes":[],"categories_segments":[],"categories_sizes":[],"default_left":[0,0,0,0,0,0,0,0,0,0,0,0,0,0,0,0,0,0,0,0,0,0,0,0,0],"id":7,"left_children":[1,3,5,7,9,11,13,15,-1,17,19,-1,21,23,-1,-1,-1,-1,-1,-1,-1,-1,-1,-1,-1],"loss_changes":[2.4972372E2,1.2869904E1,4.990341E0,2.5840302E0,1.7854607E1,6.612143E0,4.0742493E-1,3.029663E0,0E0,1.1589694E0,9.063995E0,0E0,7.404671E-1,2.5628076E0,0E0,0E0,0E0,0E0,0E0,0E0,0E0,0E0,0E0,0E0,0E0],"parents":[2147483647,0,0,1,1,2,2,3,3,4,4,5,5,6,6,7,7,9,9,10,10,12,12,13,13],"right_children":[2,4,6,8,10,12,14,16,-1,18,20,-1,22,24,-1,-1,-1,-1,-1,-1,-1,-1,-1,-1,-1],"split_conditions":[-9.9885726E-1,-1.263745E0,-9.231751E-1,2.1914427E0,-1.721322E-2,3.89999E-1,-7.958799E-1,1E0,6.453635E-2,-1.1880628E0,-1.0827174E0,-1.1728176E-1,-8.054764E-1,1.0447675E0,-1.383878E-1,8.921434E-2,3.9722207E-1,3.2759756E-2,-1.241297E-1,-5.7432327E-2,3.633234E-1,3.391604E-1,4.59544E-2,-1.2873647E-1,1.11107096E-1],"split_indices":[3,3,3,11,11,7,3,24,0,3,12,0,1,9,0,0,0,0,0,0,0,0,0,0,0],"split_type":[0,0,0,0,0,0,0,0,0,0,0,0,0,0,0,0,0,0,0,0,0,0,0,0,0],"sum_hessian":[3.7393198E2,1.01733284E2,2.721987E2,6.820499E1,3.3528294E1,8.415327E0,2.637834E2,6.623233E1,1.972655E0,1.0759443E1,2.2768848E1,5.1426997E0,3.2726276E0,1.5327165E1,2.484562E2,2.6488004E0,6.3583534E1,3.7940185E0,6.9654245E0,3.2902818E0,1.9478567E1,2.2431173E0,1.0295101E0,1.28578E1,2.4693651E0],"tree_param":{"num_deleted":"0","num_feature":"26","num_nodes":"25","size_leaf_vector":"1"}},{"base_weights":[-1.7313134E-2,7.2425586E-1,-5.1485157E-1,5.0269917E-2,1.0156226E0,7.7182636E-2,-5.432002E-1,5.628157E-1,-1.3600354E-1,4.2570987E-1,1.3299974E0,-1.2876286E-1,9.825926E-1,-5.5644965E-1,1.9715464E-1,-9.590033E-2,3.9622805E-1,4.3566266E-1,-1.0624887E-1,3.9399743E-1,6.909009E-2,3.8358855E-1,-8.154979E-2,-6.63113E-2,-1.3693768E-1,2.0125324E-1,-9.7810104E-2],"categories":[],"categories_nodes":[],"categories_segments":[],"categories_sizes":[],"default_left":[0,0,0,0,0,0,0,0,0,0,0,0,0,0,0,0,0,0,0,0,0,0,0,0,0,0,0],"id":8,"left_children":[1,3,5,7,9,11,13,15,-1,17,19,-1,21,23,25,-1,-1,-1,-1,-1,-1,-1,-1,-1,-1,-1,-1],"loss_changes":[1.3703688E2,2.9237373E1,3.7722092E0,1.4656191E1,1.8735191E1,6.558175E0,2.1915169E0,2.6462877E1,0E0,4.4836193E1,1.959777E1,0E0,4.2209325E0,1.1791229E-1,2.00672E0,0E0,0E0,0E0,0E0,0E0,0E0,0E0,0E0,0E0,0E0,0E0,0E0],"parents":[2147483647,0,0,1,1,2,2,3,3,4,4,5,5,6,6,7,7,9,9,10,10,12,12,13,13,14,14],"right_children":[2,4,6,8,10,12,14,16,-1,18,20,-1,22,24,26,-1,-1,-1,-1,-1,-1,-1,-1,-1,-1,-1,-1],"split_conditions":[-4.2555162E-1,-1.263745E0,1E0,-6.560032E-1,-7.801153E-1,1.0785604E0,1E0,-1.5664737E0,-1.3600354E-1,-9.231751E-1,3.89999E-1,-1.2876286E-1,3.3166E-2,-3.5555863E-1,-7.358862E-2,-9.590033E-2,3.9622805E-1,4.3566266E-1,-1.0624887E-1,3.9399743E-1,6.909009E-2,3.8358855E-1,-8.154979E-2,-6.63113E-2,-1.3693768E-1,2.0125324E-1,-9.7810104E-2],"split_indices":[3,3,15,2,2,2,25,3,0,3,7,0,3,3,3,0,0,0,0,0,0,0,0,0,0,0,0],"split_type":[0,0,0,0,0,0,0,0,0,0,0,0,0,0,0,0,0,0,0,0,0,0,0,0,0,0,0],"sum_hessian":[3.6940424E2,1.481438E2,2.2126042E2,4.506728E1,1.0307652E2,1.0031867E1,2.1122855E2,2.44827E1,2.0584581E1,3.665288E1,6.642364E1,6.265057E0,3.7668095E0,2.0775888E2,3.4696724E0,1.3208343E1,1.1274358E1,1.3798561E1,2.285432E1,5.182001E1,1.4603629E1,2.4690602E0,1.2977494E0,4.2192807E0,2.035396E2,1.5081372E0,1.9615353E0],"tree_param":{"num_deleted":"0","num_feature":"26","num_nodes":"27","size_leaf_vector":"1"}},{"base_weights":[-1.123942E-2,2.9717055E-1,-5.4935294E-1,-4.205105E-1,5.9159297E-1,-5.5645525E-1,4.855096E-2,9.420971E-1,-5.1503426E-1,9.4665575E-1,2.489243E-1,-1.3761163E-1,8.8397786E-4,3.072959E-1,2.048281E-2,-6.7544915E-2,-1.3627285E-1,3.1775334E-1,-1.4324342E-1,-1.364618E-1,3.4717822E-1],"categories":[],"categories_nodes":[],"categories_segments":[],"categories_sizes":[],"default_left":[0,0,0,0,0,0,0,0,0,0,0,0,0,0,0,0,0,0,0,0,0],"id":9,"left_children":[1,3,5,7,9,11,-1,13,15,17,19,-1,-1,-1,-1,-1,-1,-1,-1,-1,-1],"loss_changes":[6.19125E1,5.0362484E1,8.3293533E-1,9.446612E0,2.0276535E1,5.536995E-1,0E0,1.2175775E0,5.226326E-1,4.5655464E1,8.3416885E1,0E0,0E0,0E0,0E0,0E0,0E0,0E0,0E0,0E0,0E0],"parents":[2147483647,0,0,1,1,2,2,3,3,4,4,5,5,7,7,8,8,9,9,10,10],"right_children":[2,4,6,8,10,12,-1,14,16,18,20,-1,-1,-1,-1,-1,-1,-1,-1,-1,-1],"split_conditions":[1.3606045E-1,-9.231751E-1,1E0,-1.956864E0,-3.9339975E-1,1.3075775E0,4.855096E-2,-8.27059E-1,-1.442359E0,3.0559623E-1,2.930342E-1,-1.3761163E-1,8.8397786E-4,3.072959E-1,2.048281E-2,-6.7544915E-2,-1.3627285E-1,3.1775334E-1,-1.4324342E-1,-1.364618E-1,3.4717822E-1],"split_indices":[3,3,13,2,3,7,0,1,2,2,2,0,0,0,0,0,0,0,0,0,0],"split_type":[0,0,0,0,0,0,0,0,0,0,0,0,0,0,0,0,0,0,0,0,0],"sum_hessian":[3.7107404E2,2.3616699E2,1.3490706E2,6.857675E1,1.6759024E2,1.3389249E2,1.0145605E0,3.8668838E0,6.470987E1,8.144099E1,8.6149254E1,1.3216286E2,1.7296444E0,2.4832263E0,1.3836575E0,1.1073674E1,5.3636196E1,6.6251045E1,1.5189938E1,5.1328506E1,3.4820747E1],"tree_param":{"num_deleted":"0","num_feature":"26","num_nodes":"21","size_leaf_vector":"1"}},{"base_weights":[-3.243668E-2,1.9704925E-1,-1.3878886E-1,-3.419045E-1,7.9988354E-1,2.3756906E-1,-5.5668104E-1,1.6135168E-1,1.1363738E0,-1.2064159E-1,2.0229305E-1,-1.3829334E-1,-5.030347E-3,-4.3968726E-2,1.6172169E-1,4.3952996E-1,1.7213047E-1],"categories":[],"categories_nodes":[],"categories_segments":[],"categories_sizes":[],"default_left":[0,0,0,0,0,0,0,0,0,0,0,0,0,0,0,0,0],"id":10,"left_children":[1,3,-1,5,7,9,11,13,15,-1,-1,-1,-1,-1,-1,-1,-1],"loss_changes":[4.4937782E1,8.3404816E1,0E0,1.7032555E1,2.583091E1,1.6598696E1,5.140438E-1,7.4698763E0,2.1394249E1,0E0,0E0,0E0,0E0,0E0,0E0,0E0,0E0],"parents":[2147483647,0,0,1,1,3,3,4,4,5,5,6,6,7,7,8,8],"right_children":[2,4,-1,6,8,10,12,14,16,-1,-1,-1,-1,-1,-1,-1,-1],"split_conditions":[5.9556395E-1,-3.5555863E-1,-1.3878886E-1,1E0,1E0,-9.231751E-1,1E0,1E0,-5.0037153E-2,-1.2064159E-1,2.0229305E-1,-1.3829334E-1,-5.030347E-3,-4.3968726E-2,1.6172169E-1,4.3952996E-1,1.7213047E-1],"split_indices":[3,3,0,5,0,3,8,21,3,0,0,0,0,0,0,0,0],"split_type":[0,0,0,0,0,0,0,0,0,0,0,0,0,0,0,0,0],"sum_hessian":[3.6332632E2,2.5486758E2,1.0845874E2,1.3479196E2,1.20075615E2,3.642097E1,9.837099E1,4.194993E1,7.812569E1,1.6347952E1,2.007302E1,9.653692E1,1.8340727E0,2.5331085E1,1.6618843E1,2.9502188E1,4.86235E1],"tree_param":{"num_deleted":"0","num_feature":"26","num_nodes":"17","size_leaf_vector":"1"}},{"base_weights":[8.4510334E-2,-5.7078874E-1,4.4292757E-1,-1.4109255E-1,-2.056184E-5,8.422873E-1,-4.2553788E-1,1.8526498E0,6.7899585E-1,-1.3718233E-1,5.365085E-1,5.166639E-1,-9.610038E-2,2.589998E-2,3.136515E-1,5.00441E-1,-1.2051333E-1],"categories":[],"categories_nodes":[],"categories_segments":[],"categories_sizes":[],"default_left":[0,0,0,0,0,0,0,0,0,0,0,0,0,0,0,0,0],"id":11,"left_children":[1,3,5,-1,-1,7,9,11,13,-1,15,-1,-1,-1,-1,-1,-1],"loss_changes":[9.026069E1,5.6075287E-1,8.647326E1,0E0,0E0,2.6857903E1,1.0656347E1,1.4550186E1,5.1339478E1,0E0,1.7089241E1,0E0,0E0,0E0,0E0,0E0,0E0],"parents":[2147483647,0,0,1,1,2,2,5,5,6,6,7,7,8,8,10,10],"right_children":[2,4,6,-1,-1,8,10,12,14,-1,16,-1,-1,-1,-1,-1,-1],"split_conditions":[-4.2555162E-1,1E0,8.8900983E-1,-1.4109255E-1,-2.056184E-5,-1.0186756E0,1.5984306E0,-1.2798104E-1,1.3606045E-1,-1.3718233E-1,-3.0400693E-1,5.166639E-1,-9.610038E-2,2.589998E-2,3.136515E-1,5.00441E-1,-1.2051333E-1],"split_indices":[3,23,3,0,0,2,2,3,3,0,1,0,0,0,0,0,0],"split_type":[0,0,0,0,0,0,0,0,0,0,0,0,0,0,0,0,0],"sum_hessian":[3.822234E2,1.3493231E2,2.4729108E2,1.3323189E2,1.7004255E0,1.6941606E2,7.787503E1,2.2131598E1,1.4728445E2,6.856528E1,9.3097515E0,1.9855957E1,2.2756414E0,7.6311386E1,7.097307E1,3.369313E0,5.9404387E0],"tree_param":{"num_deleted":"0","num_feature":"26","num_nodes":"17","size_leaf_vector":"1"}},{"base_weights":[-3.475427E-2,-5.536979E-1,6.826628E-1,-1.3726075E-1,-1.7947407E-1,-5.364399E-1,1.2815845E0,-1.1374467E-1,1.4461751E-1,2.8952308E-2,-1.3542357E-1,1.2038539E-2,1.5135233E0,-9.5366724E-2,2.8377208E-1,2.313221E-1,4.16355E-1],"categories":[],"categories_nodes":[],"categories_segments":[],"categories_sizes":[],"default_left":[0,0,0,0,0,0,0,0,0,0,0,0,0,0,0,0,0],"id":12,"left_children":[1,3,5,-1,7,9,11,-1,-1,-1,-1,13,15,-1,-1,-1,-1],"loss_changes":[1.3843007E2,5.9510803E-1,1.1465586E2,0E0,1.6753615E0,6.924906E-1,3.0888947E1,0E0,0E0,0E0,0E0,8.433835E0,8.033371E0,0E0,0E0,0E0,0E0],"parents":[2147483647,0,0,1,1,2,2,4,4,5,5,6,6,11,11,12,12],"right_children":[2,4,6,-1,8,10,12,-1,-1,-1,-1,14,16,-1,-1,-1,-1],"split_conditions":[4.8448673E-1,4.1828206E-1,1E0,-1.3726075E-1,6.432504E-1,-1.656764E0,-2.8811252E-1,-1.1374467E-1,1.4461751E-1,2.8952308E-2,-1.3542357E-1,1.4709063E-1,8.8900983E-1,-9.5366724E-2,2.8377208E-1,2.313221E-1,4.16355E-1],"split_indices":[3,3,0,0,6,9,1,0,0,0,0,6,3,0,0,0,0],"split_type":[0,0,0,0,0,0,0,0,0,0,0,0,0,0,0,0,0],"sum_hessian":[3.6980975E2,2.1472015E2,1.5508961E2,2.0939322E2,5.3269258E0,5.112639E1,1.0396323E2,4.1740503E0,1.1528752E0,1.2445608E0,4.988183E1,1.6222E1,8.774123E1,1.2505045E1,3.7169547E0,2.37471E1,6.399412E1],"tree_param":{"num_deleted":"0","num_feature":"26","num_nodes":"17","size_leaf_vector":"1"}},{"base_weights":[4.240093E-2,-1.3835333E-1,9.136986E-1,-1.3606738E-1,1.5214183E0,4.0254867E-1,-4.0593794E-1,-1.2774815E-1,4.687263E-2],"categories":[],"categories_nodes":[],"categories_segments":[],"categories_sizes":[],"default_left":[0,0,0,0,0,0,0,0,0],"id":13,"left_children":[1,-1,3,-1,5,-1,7,-1,-1],"loss_changes":[2.0530069E2,0E0,1.4312045E2,0E0,2.8455444E1,0E0,6.4935184E-1,0E0,0E0],"parents":[2147483647,0,0,2,2,4,4,6,6],"right_children":[2,-1,4,-1,6,-1,8,-1,-1],"split_conditions":[1.0895194E0,-1.3835333E-1,5.353715E-1,-1.3606738E-1,1E0,4.0254867E-1,1.3408433E0,-1.2774815E-1,4.687263E-2],"split_indices":[6,0,3,0,0,0,3,0,0],"split_type":[0,0,0,0,0,0,0,0,0],"sum_hessian":[3.848064E2,2.2667119E2,1.5813521E2,4.6252598E1,1.1188261E2,1.0506498E2,6.817626E0,5.802977E0,1.014649E0],"tree_param":{"num_deleted":"0","num_feature":"26","num_nodes":"9","size_leaf_vector":"1"}},{"base_weights":[-2.1317301E-2,-1.9559954E-1,7.788538E-1,3.9450085E-1,-4.9036574E-1,9.778859E-1,4.050105E-2,1.5044014E-1,9.672165E-1,-5.210922E-1,1.315765E-1,-1.0058843E-1,1.0614451E0,-3.360161E-1,3.1336433E-1,1.504335E-1,-3.224517E-2,-7.824E-2,2.5292793E-1,-6.0651537E-2,-1.3044922E-1,-1.1423894E-1,1.8990016E-1,1.9620236E-2,2.7928308E-1,-1.07403524E-1,-1.1531373E-2,1.1321418E-1,-7.738667E-2],"categories":[],"categories_nodes":[],"categories_segments":[],"categories_sizes":[],"default_left":[0,0,0,0,0,0,0,0,0,0,0,0,0,0,0,0,0,0,0,0,0,0,0,0,0,0,0,0,0],"id":14,"left_children":[1,3,5,7,9,11,13,15,17,19,21,-1,23,25,27,-1,-1,-1,-1,-1,-1,-1,-1,-1,-1,-1,-1,-1,-1],"loss_changes":[4.9352623E1,5.0723946E1,9.2626915E0,1.3458494E1,3.7792892E0,6.223316E0,1.5932955E0,9.219551E0,2.8983326E0,5.3998566E-1,4.216446E0,0E0,3.7434044E0,1.7645425E-1,9.925408E-1,0E0,0E0,0E0,0E0,0E0,0E0,0E0,0E0,0E0,0E0,0E0,0E0,0E0,0E0],"parents":[2147483647,0,0,1,1,2,2,3,3,4,4,5,5,6,6,7,7,8,8,9,9,10,10,12,12,13,13,14,14],"right_children":[2,4,6,8,10,12,14,16,18,20,22,-1,24,26,28,-1,-1,-1,-1,-1,-1,-1,-1,-1,-1,-1,-1,-1,-1],"split_conditions":[1E0,-6.7136145E-1,1E0,5.409989E-1,6.991282E-1,1E0,-1.0827174E0,1E0,-8.660888E-1,-5.937472E-1,5.115663E-1,-1.0058843E-1,-9.82897E-1,3.89999E-1,-1.8394862E-1,1.504335E-1,-3.224517E-2,-7.824E-2,2.5292793E-1,-6.0651537E-2,-1.3044922E-1,-1.1423894E-1,1.8990016E-1,1.9620236E-2,2.7928308E-1,-1.07403524E-1,-1.1531373E-2,1.1321418E-1,-7.738667E-2],"split_indices":[14,1,0,7,7,24,12,4,2,1,2,0,1,7,1,0,0,0,0,0,0,0,0,0,0,0,0,0,0],"split_type":[0,0,0,0,0,0,0,0,0,0,0,0,0,0,0,0,0,0,0,0,0,0,0,0,0,0,0,0,0],"sum_hessian":[3.5180246E2,2.8950256E2,6.2299904E1,9.6326195E1,1.9317636E2,4.8816418E1,1.3483486E1,6.842837E1,2.7897827E1,1.8423648E2,8.939875E0,2.5452754E0,4.627114E1,5.5683775E0,7.9151087E0,2.5388006E1,4.3040363E1,1.2325954E0,2.6665232E1,9.499476E0,1.7473701E2,4.78104E0,4.1588345E0,3.7506013E0,4.2520542E1,3.7090702E0,1.8593074E0,6.6034617E0,1.3116468E0],"tree_param":{"num_deleted":"0","num_feature":"26","num_nodes":"29","size_leaf_vector":"1"}},{"base_weights":[-2.387877E-3,5.662037E-1,-4.9035817E-1,9.548305E-2,7.33354E-1,-5.1749945E-1,1.7755875E-1,5.3253067E-1,-1.3173006E-1,-8.3032034E-2,8.484783E-1,-5.321367E-1,2.5709608E-1,-1.17763236E-1,8.583088E-1,-3.301853E-2,3.578114E-1,1.3629866E-1,-1.2681584E-1,2.5680667E-1,7.093467E-2,-4.3398038E-2,-1.3324799E-1,1.8266213E-1,-8.705766E-2,3.6873195E-1,-8.2211524E-2],"categories":[],"categories_nodes":[],"categories_segments":[],"categories_sizes":[],"default_left":[0,0,0,0,0,0,0,0,0,0,0,0,0,0,0,0,0,0,0,0,0,0,0,0,0,0,0],"id":15,"left_children":[1,3,5,7,9,11,13,15,-1,17,19,21,23,-1,25,-1,-1,-1,-1,-1,-1,-1,-1,-1,-1,-1,-1],"loss_changes":[1.0034632E2,1.3072578E1,3.6201363E0,1.275683E1,1.1641602E1,2.2602348E0,4.1632786E0,1.709731E1,0E0,4.805129E0,1.1959419E1,7.997093E-1,1.5173464E0,0E0,3.9914522E0,0E0,0E0,0E0,0E0,0E0,0E0,0E0,0E0,0E0,0E0,0E0,0E0],"parents":[2147483647,0,0,1,1,2,2,3,3,4,4,5,5,6,6,7,7,9,9,10,10,11,11,12,12,14,14],"right_children":[2,4,6,8,10,12,14,16,-1,18,20,22,24,-1,26,-1,-1,-1,-1,-1,-1,-1,-1,-1,-1,-1,-1],"split_conditions":[-4.2555162E-1,-1.263745E0,1E0,-6.560032E-1,-1.4194974E0,1E0,8.5215276E-1,-1.4860721E0,-1.3173006E-1,-1.0287726E0,-8.480202E-3,1E0,-7.358862E-2,-1.17763236E-1,3.3166E-2,-3.301853E-2,3.578114E-1,1.3629866E-1,-1.2681584E-1,2.5680667E-1,7.093467E-2,-4.3398038E-2,-1.3324799E-1,1.8266213E-1,-8.705766E-2,3.6873195E-1,-8.2211524E-2],"split_indices":[3,3,14,2,2,25,2,3,0,3,9,4,3,0,3,0,0,0,0,0,0,0,0,0,0,0,0],"split_type":[0,0,0,0,0,0,0,0,0,0,0,0,0,0,0,0,0,0,0,0,0,0,0,0,0,0,0],"sum_hessian":[3.5966528E2,1.660364E2,1.9362888E2,4.3920574E1,1.2211583E2,1.862843E2,7.3445807E0,2.6113358E1,1.7807217E1,1.5126612E1,1.0698922E2,1.8313664E2,3.1476555E0,3.877024E0,3.4675565E0,1.5720401E1,1.0392957E1,6.0124345E0,9.114178E0,7.773522E1,2.9254E1,7.3583384E0,1.757783E2,1.6265593E0,1.5210961E0,2.0724423E0,1.3951143E0],"tree_param":{"num_deleted":"0","num_feature":"26","num_nodes":"27","size_leaf_vector":"1"}},{"base_weights":[-2.3051994E-2,2.1612836E-1,-5.3398347E-1,-4.0672004E-1,4.2060983E-1,-1.3454135E-1,-1.5086183E-2,7.4492353E-1,-5.113262E-1,5.922715E-1,8.177747E-3,1.5658514E-1,-9.721676E-2,-7.530696E-2,2.5846773E-1,-1.330383E-1,-3.9108466E-2,-1.6443802E-2,1.7244892E-1,-5.4045316E-2,1.8132341E-1],"categories":[],"categories_nodes":[],"categories_segments":[],"categories_sizes":[],"default_left":[0,0,0,0,0,0,0,0,0,0,0,0,0,0,0,0,0,0,0,0,0],"id":16,"left_children":[1,3,5,7,9,-1,11,13,15,17,19,-1,-1,-1,-1,-1,-1,-1,-1,-1,-1],"loss_changes":[4.377262E1,3.1253105E1,1.0106583E0,7.708617E0,1.3037724E1,0E0,1.4357336E0,2.136387E0,5.793972E-1,9.84586E0,9.467329E0,0E0,0E0,0E0,0E0,0E0,0E0,0E0,0E0,0E0,0E0],"parents":[2147483647,0,0,1,1,2,2,3,3,4,4,6,6,7,7,8,8,9,9,10,10],"right_children":[2,4,6,8,10,-1,12,14,16,18,20,-1,-1,-1,-1,-1,-1,-1,-1,-1,-1],"split_conditions":[1.3606045E-1,-9.610162E-1,1.9216392E0,-1.956864E0,1E0,-1.3454135E-1,3.2991922E-1,-1.3709959E0,1E0,-8.27059E-1,5.321547E-1,1.5658514E-1,-9.721676E-2,-7.530696E-2,2.5846773E-1,-1.330383E-1,-3.9108466E-2,-1.6443802E-2,1.7244892E-1,-5.4045316E-2,1.8132341E-1],"split_indices":[3,3,2,2,20,0,1,3,10,1,2,0,0,0,0,0,0,0,0,0,0],"split_type":[0,0,0,0,0,0,0,0,0,0,0,0,0,0,0,0,0,0,0,0,0],"sum_hessian":[3.5624637E2,2.430468E2,1.1319956E2,5.9826595E1,1.8322021E2,1.0950838E2,3.6911883E0,4.4719706E0,5.535462E1,1.2906499E2,5.415522E1,1.1118975E0,2.5792909E0,1.0307294E0,3.4412408E0,5.0003582E1,5.3510413E0,1.9108116E1,1.0995688E2,4.17931E1,1.2362123E1],"tree_param":{"num_deleted":"0","num_feature":"26","num_nodes":"21","size_leaf_vector":"1"}},{"base_weights":[-2.7403686E-2,1.7384261E-1,-5.456788E-1,-2.9644984E-1,6.032804E-1,-1.3551274E-1,1.3092178E-2,3.1257132E-1,-5.155111E-1,-5.12117E-1,8.379439E-1,-8.3704256E-2,3.0054778E-1,-1.3602479E-1,-6.817418E-2,-1.343978E-1,-2.4433779E-2,2.951657E-1,9.015925E-2],"categories":[],"categories_nodes":[],"categories_segments":[],"categories_sizes":[],"default_left":[0,0,0,0,0,0,0,0,0,0,0,0,0,0,0,0,0,0,0],"id":17,"left_children":[1,3,5,7,9,-1,-1,11,13,15,17,-1,-1,-1,-1,-1,-1,-1,-1],"loss_changes":[3.679673E1,5.1521973E1,5.9031296E-1,1.6438835E1,3.5296593E1,0E0,0E0,2.023365E1,7.3295593E-1,3.2177305E-1,1.8766327E1,0E0,0E0,0E0,0E0,0E0,0E0,0E0,0E0],"parents":[2147483647,0,0,1,1,2,2,3,3,4,4,7,7,8,8,9,9,10,10],"right_children":[2,4,6,8,10,-1,-1,12,14,16,18,-1,-1,-1,-1,-1,-1,-1,-1],"split_conditions":[5.147866E-1,-3.5555863E-1,2.3402913E0,-1.301203E0,-5.5629337E-1,-1.3551274E-1,1.3092178E-2,-8.627189E-1,-5.4075843E-1,1E0,3.971286E-2,-8.3704256E-2,3.0054778E-1,-1.3602479E-1,-6.817418E-2,-1.343978E-1,-2.4433779E-2,2.951657E-1,9.015925E-2],"split_indices":[3,3,2,2,2,0,0,3,3,0,11,0,0,0,0,0,0,0,0],"split_type":[0,0,0,0,0,0,0,0,0,0,0,0,0,0,0,0,0,0,0],"sum_hessian":[3.5088428E2,2.5322252E2,9.7661766E1,1.2100995E2,1.3221257E2,9.621355E1,1.448219E0,3.1899094E1,8.9110855E1,2.2775272E1,1.094373E2,1.8982115E1,1.291698E1,7.457308E1,1.4537772E1,2.0522564E1,2.2527096E0,6.0177235E1,4.9260063E1],"tree_param":{"num_deleted":"0","num_feature":"26","num_nodes":"19","size_leaf_vector":"1"}},{"base_weights":[8.788224E-2,-5.546481E-1,3.7300026E-1,-1.3740224E-1,3.1245511E-3,6.515736E-1,-4.133267E-1,8.6131024E-1,2.5889415E-1,-1.3364577E-1,4.2037317E-1,1.2112727E-1,3.877953E-1,2.0945793E-2,2.9793346E-1,3.4490263E-1,-1.1496144E-1],"categories":[],"categories_nodes":[],"categories_segments":[],"categories_sizes":[],"default_left":[0,0,0,0,0,0,0,0,0,0,0,0,0,0,0,0,0],"id":18,"left_children":[1,3,5,-1,-1,7,9,11,13,-1,15,-1,-1,-1,-1,-1,-1],"loss_changes":[6.9491486E1,5.5335236E-1,5.778171E1,0E0,0E0,1.5776062E1,7.982092E0,3.272384E1,1.1390678E1,0E0,9.665448E0,0E0,0E0,0E0,0E0,0E0,0E0],"parents":[2147483647,0,0,1,1,2,2,5,5,6,6,7,7,8,8,10,10],"right_children":[2,4,6,-1,-1,8,10,12,14,-1,16,-1,-1,-1,-1,-1,-1],"split_conditions":[-4.2555162E-1,1E0,8.8900983E-1,-1.3740224E-1,3.1245511E-3,1.5577206E-1,1.6342529E0,2.4989891E-1,9.597403E-1,-1.3364577E-1,1.2264239E0,1.2112727E-1,3.877953E-1,2.0945793E-2,2.9793346E-1,3.4490263E-1,-1.1496144E-1],"split_indices":[3,23,3,0,0,6,2,3,12,0,3,0,0,0,0,0,0],"split_type":[0,0,0,0,0,0,0,0,0,0,0,0,0,0,0,0,0],"sum_hessian":[3.7719733E2,1.15643196E2,2.615541E2,1.1399362E2,1.6495804E0,1.9325923E2,6.829488E1,1.2519635E2,6.806289E1,5.912244E1,9.172445E0,8.447774E1,4.0718605E1,5.8604183E1,9.458702E0,4.062833E0,5.1096125E0],"tree_param":{"num_deleted":"0","num_feature":"26","num_nodes":"17","size_leaf_vector":"1"}},{"base_weights":[-4.672012E-2,-5.504821E-1,5.3634214E-1,-1.3559131E-1,-1.787348E-1,-5.172866E-1,9.0694547E-1,-9.153594E-2,4.709333E-2,2.9861005E-2,-1.3161688E-1,-3.5440262E-2,1.0479398E0,-9.1360755E-2,2.1375135E-1,2.7307713E-1,-2.9441644E-2],"categories":[],"categories_nodes":[],"categories_segments":[],"categories_sizes":[],"default_left":[0,0,0,0,0,0,0,0,0,0,0,0,0,0,0,0,0],"id":19,"left_children":[1,3,5,-1,7,9,11,-1,-1,-1,-1,13,15,-1,-1,-1,-1],"loss_changes":[1.0239328E2,2.4814224E-1,6.3579876E1,0E0,3.6084577E-1,6.643162E-1,1.59724655E1,0E0,0E0,0E0,0E0,5.444984E0,8.766502E0,0E0,0E0,0E0,0E0],"parents":[2147483647,0,0,1,1,2,2,4,4,5,5,6,6,11,11,12,12],"right_children":[2,4,6,-1,8,10,12,-1,-1,-1,-1,14,16,-1,-1,-1,-1],"split_conditions":[4.5579723E-1,4.1828206E-1,1E0,-1.3559131E-1,-7.7077955E-1,-1.656764E0,-2.8811252E-1,-9.153594E-2,4.709333E-2,2.9861005E-2,-1.3161688E-1,1.4709063E-1,1.1319655E0,-9.1360755E-2,2.1375135E-1,2.7307713E-1,-2.9441644E-2],"split_indices":[3,3,0,0,6,9,1,0,0,0,0,6,11,0,0,0,0],"split_type":[0,0,0,0,0,0,0,0,0,0,0,0,0,0,0,0,0],"sum_hessian":[3.4659784E2,1.8597368E2,1.6062418E2,1.830186E2,2.9550767E0,4.1693462E1,1.1893071E2,1.9279954E0,1.0270814E0,1.2292029E0,4.046426E1,1.5575429E1,1.0335528E2,1.1782723E1,3.7927058E0,9.749253E1,5.8627453E0],"tree_param":{"num_deleted":"0","num_feature":"26","num_nodes":"17","size_leaf_vector":"1"}},{"base_weights":[1.3862046E-2,-1.3552234E-1,6.913544E-1,-1.3296182E-1,1.0954982E0,2.8875613E-1,-1.2445365E-1],"categories":[],"categories_nodes":[],"categories_segments":[],"categories_sizes":[],"default_left":[0,0,0,0,0,0,0],"id":20,"left_children":[1,-1,3,-1,5,-1,-1],"loss_changes":[1.4082263E2,0E0,8.389004E1,0E0,1.8291397E1,0E0,0E0],"parents":[2147483647,0,0,2,2,4,4],"right_children":[2,-1,4,-1,6,-1,-1],"split_conditions":[1.0895194E0,-1.3552234E-1,5.353715E-1,-1.3296182E-1,1E0,2.8875613E-1,-1.2445365E-1],"split_indices":[6,0,3,0,0,0,0],"split_type":[0,0,0,0,0,0,0],"sum_hessian":[3.6327097E2,1.975333E2,1.6573767E2,4.075176E1,1.2498592E2,1.18778206E2,6.2077127E0],"tree_param":{"num_deleted":"0","num_feature":"26","num_nodes":"7","size_leaf_vector":"1"}},{"base_weights":[-2.1254033E-2,-1.7854835E-1,6.2069577E-1,3.353984E-1,-4.699159E-1,1.06354445E-1,8.269293E-1,1.1077201E-1,7.7179784E-1,-5.017306E-1,4.550317E-2,-1.2767814E-1,4.4196332E-1,-1.9852133E-1,9.02053E-1,-6.8253465E-2,9.752003E-2,-8.513567E-2,2.0513804E-1,-5.179937E-2,-1.2614235E-1,-1.1294E-1,1.3225044E-1,1.9439934E-1,-1.1988798E-3,-9.221026E-2,4.1489497E-2,-2.7469985E-2,2.3298225E-1],"categories":[],"categories_nodes":[],"categories_segments":[],"categories_sizes":[],"default_left":[0,0,0,0,0,0,0,0,0,0,0,0,0,0,0,0,0,0,0,0,0,0,0,0,0,0,0,0,0],"id":21,"left_children":[1,3,5,7,9,11,13,15,17,19,21,-1,23,25,27,-1,-1,-1,-1,-1,-1,-1,-1,-1,-1,-1,-1,-1,-1],"loss_changes":[3.366104E1,4.0237274E1,6.8720093E0,9.4643135E0,2.830616E0,4.4404597E0,3.775652E0,7.493019E0,2.8249245E0,5.9295654E-1,2.9925904E0,0E0,2.1483128E0,3.2882524E-1,2.4301872E0,0E0,0E0,0E0,0E0,0E0,0E0,0E0,0E0,0E0,0E0,0E0,0E0,0E0,0E0],"parents":[2147483647,0,0,1,1,2,2,3,3,4,4,5,5,6,6,7,7,8,8,9,9,10,10,12,12,13,13,14,14],"right_children":[2,4,6,8,10,12,14,16,18,20,22,-1,24,26,28,-1,-1,-1,-1,-1,-1,-1,-1,-1,-1,-1,-1,-1,-1],"split_conditions":[1E0,-6.7136145E-1,-7.7077955E-1,3.89999E-1,6.991282E-1,-1.23236924E-1,1E0,5.2771205E-1,1E0,1E0,5.115663E-1,-1.2767814E-1,-1.9222745E-1,1E0,-9.82897E-1,-6.8253465E-2,9.752003E-2,-8.513567E-2,2.0513804E-1,-5.179937E-2,-1.2614235E-1,-1.1294E-1,1.3225044E-1,1.9439934E-1,-1.1988798E-3,-9.221026E-2,4.1489497E-2,-2.7469985E-2,2.3298225E-1],"split_indices":[14,1,6,7,7,2,24,12,5,15,2,0,9,25,1,0,0,0,0,0,0,0,0,0,0,0,0,0,0],"split_type":[0,0,0,0,0,0,0,0,0,0,0,0,0,0,0,0,0,0,0,0,0,0,0,0,0,0,0,0,0],"sum_hessian":[3.312624E2,2.6664847E2,6.461391E1,9.642034E1,1.7022813E2,1.8926752E1,4.5687157E1,6.448304E1,3.1937304E1,1.6035654E2,9.871594E0,6.3879457E0,1.2538806E1,3.006422E0,4.2680737E1,2.7429289E1,3.7053753E1,1.6066734E0,3.033063E1,8.664978E0,1.5169156E2,4.910795E0,4.9607987E0,6.5564313E0,5.9823747E0,2.0056841E0,1.0007379E0,2.0401452E0,4.064059E1],"tree_param":{"num_deleted":"0","num_feature":"26","num_nodes":"29","size_leaf_vector":"1"}},{"base_weights":[-9.323147E-3,4.9653494E-1,-4.244227E-1,1.1469134E-1,7.011993E-1,3.4884596E-1,-4.9504024E-1,5.252272E-1,-1.3345791E-1,2.5315732E-1,1.0244966E0,-1.2618783E-1,7.858411E-1,-5.213747E-1,5.438832E-1,-8.393567E-2,2.2905514E-1,1.9909655E-1,-1.15404E-1,3.2290065E-1,3.717721E-2,2.5430304E-1,-8.870704E-2,-1.2979169E-1,-1.03309015E-2,2.6882085E-1,-8.6653635E-2],"categories":[],"categories_nodes":[],"categories_segments":[],"categories_sizes":[],"default_left":[0,0,0,0,0,0,0,0,0,0,0,0,0,0,0,0,0,0,0,0,0,0,0,0,0,0,0],"id":22,"left_children":[1,3,5,7,9,11,13,15,-1,17,19,-1,21,23,25,-1,-1,-1,-1,-1,-1,-1,-1,-1,-1,-1,-1],"loss_changes":[7.236319E1,1.2059086E1,1.0508419E1,1.5330782E1,1.4361229E1,6.6208935E0,5.0400505E0,1.2779926E1,0E0,1.8202702E1,1.4969082E1,0E0,3.7065072E0,8.2040787E-1,2.7895439E0,0E0,0E0,0E0,0E0,0E0,0E0,0E0,0E0,0E0,0E0,0E0,0E0],"parents":[2147483647,0,0,1,1,2,2,3,3,4,4,5,5,6,6,7,7,9,9,10,10,12,12,13,13,14,14],"right_children":[2,4,6,8,10,12,14,16,-1,18,20,-1,22,24,26,-1,-1,-1,-1,-1,-1,-1,-1,-1,-1,-1,-1],"split_conditions":[-5.4075843E-1,-1.1880628E0,1E0,-6.560032E-1,-5.5629337E-1,2.1836224E-1,1E0,-1.5664737E0,-1.3345791E-1,-8.4347767E-1,1E0,-1.2618783E-1,3.3166E-2,2.318995E0,-7.358862E-2,-8.393567E-2,2.2905514E-1,1.9909655E-1,-1.15404E-1,3.2290065E-1,3.717721E-2,2.5430304E-1,-8.870704E-2,-1.2979169E-1,-1.03309015E-2,2.6882085E-1,-8.6653635E-2],"split_indices":[3,3,15,2,2,2,25,3,0,3,21,0,3,11,3,0,0,0,0,0,0,0,0,0,0,0,0],"split_type":[0,0,0,0,0,0,0,0,0,0,0,0,0,0,0,0,0,0,0,0,0,0,0,0,0,0,0],"sum_hessian":[3.4261343E2,1.5433636E2,1.8827707E2,5.440081E1,9.993555E1,1.542558E1,1.7285149E2,3.369377E1,2.0707039E1,4.2634087E1,5.730146E1,5.112797E0,1.0312783E1,1.6906424E2,3.7872493E0,1.0910487E1,2.2783285E1,2.3951693E1,1.8682392E1,4.231176E1,1.4989703E1,8.510707E0,1.8020772E0,1.6538243E2,3.6818154E0,2.1986642E0,1.5885851E0],"tree_param":{"num_deleted":"0","num_feature":"26","num_nodes":"27","size_leaf_vector":"1"}},{"base_weights":[4.74336E-3,2.0625088E-1,-1.3176243E-1,-3.602921E-1,3.6617255E-1,6.985729E-1,-4.8145187E-1,5.046528E-1,-1.6737483E-2,2.3547912E-1,-2.2412469E-3,-1.3113719E-1,-1.6921658E-2,1.620901E-1,4.471077E-2,-6.1018344E-2,1.6711167E-1],"categories":[],"categories_nodes":[],"categories_segments":[],"categories_sizes":[],"default_left":[0,0,0,0,0,0,0,0,0,0,0,0,0,0,0,0,0],"id":23,"left_children":[1,3,-1,5,7,9,11,13,15,-1,-1,-1,-1,-1,-1,-1,-1],"loss_changes":[3.8126633E1,2.3108376E1,0E0,7.562998E0,1.052161E1,1.1750548E0,1.1383781E0,7.34095E0,8.943502E0,0E0,0E0,0E0,0E0,0E0,0E0,0E0,0E0],"parents":[2147483647,0,0,1,1,3,3,4,4,5,5,6,6,7,7,8,8],"right_children":[2,4,-1,6,8,10,12,14,16,-1,-1,-1,-1,-1,-1,-1,-1],"split_conditions":[1.581696E-1,-9.231751E-1,-1.3176243E-1,-1.956864E0,1E0,-8.27059E-1,1E0,-2.534907E-1,5.568478E-1,2.3547912E-1,-2.2412469E-3,-1.3113719E-1,-1.6921658E-2,1.620901E-1,4.471077E-2,-6.1018344E-2,1.6711167E-1],"split_indices":[3,3,0,2,20,1,10,3,2,0,0,0,0,0,0,0,0],"split_type":[0,0,0,0,0,0,0,0,0,0,0,0,0,0,0,0,0],"sum_hessian":[3.454487E2,2.5259616E2,9.285254E1,5.5329918E1,1.9726625E2,5.1917105E0,5.0138206E1,1.4463922E2,5.262703E1,3.5091949E0,1.6825155E0,4.3893665E1,6.2445436E0,9.59858E1,4.865341E1,3.9976242E1,1.26507845E1],"tree_param":{"num_deleted":"0","num_feature":"26","num_nodes":"17","size_leaf_vector":"1"}},{"base_weights":[-1.912726E-2,1.451994E-1,-1.324264E-1,-3.0290598E-1,4.816016E-1,1.8527304E-1,-5.204288E-1,-5.0445354E-1,6.6688067E-1,2.1478067E-1,-9.648834E-2,-8.692238E-3,-1.299944E-1,-3.7719782E-2,-1.323853E-1,7.644006E-2,2.277655E-1],"categories":[],"categories_nodes":[],"categories_segments":[],"categories_sizes":[],"default_left":[0,0,0,0,0,0,0,0,0,0,0,0,0,0,0,0,0],"id":24,"left_children":[1,3,-1,5,7,9,11,13,15,-1,-1,-1,-1,-1,-1,-1,-1],"loss_changes":[2.9532309E1,3.9552837E1,0E0,1.206524E1,2.7686958E1,1.4655523E1,4.4083214E-1,2.3773146E-1,1.161573E1,0E0,0E0,0E0,0E0,0E0,0E0,0E0,0E0],"parents":[2147483647,0,0,1,1,3,3,4,4,5,5,6,6,7,7,8,8],"right_children":[2,4,-1,6,8,10,12,14,16,-1,-1,-1,-1,-1,-1,-1,-1],"split_conditions":[5.9556395E-1,-3.5555863E-1,-1.324264E-1,1E0,-5.5629337E-1,-1.2027105E0,-2.1137602E0,-3.1589332E-1,-2.1946844E-1,2.1478067E-1,-9.648834E-2,-8.692238E-3,-1.299944E-1,-3.7719782E-2,-1.323853E-1,7.644006E-2,2.277655E-1],"split_indices":[3,3,0,5,2,2,2,3,1,0,0,0,0,0,0,0,0],"split_type":[0,0,0,0,0,0,0,0,0,0,0,0,0,0,0,0,0],"sum_hessian":[3.4145697E2,2.6041705E2,8.103992E1,1.117113E2,1.4870575E2,3.447916E1,7.723215E1,2.3249458E1,1.2545629E2,1.5462757E1,1.9016403E1,1.9801085E0,7.525204E1,2.767807E0,2.0481651E1,5.480762E1,7.0648674E1],"tree_param":{"num_deleted":"0","num_feature":"26","num_nodes":"17","size_leaf_vector":"1"}},{"base_weights":[9.4287105E-2,-5.4271704E-1,3.3121586E-1,-1.34755E-1,7.0749186E-3,5.2440846E-1,-3.6143214E-1,5.8243954E-1,-1.34579E-1,-1.3064459E-1,3.822285E-1,2.0046774E-1,8.25656E-2,2.613842E-1,-1.1200993E-1],"categories":[],"categories_nodes":[],"categories_segments":[],"categories_sizes":[],"default_left":[0,0,0,0,0,0,0,0,0,0,0,0,0,0,0],"id":25,"left_children":[1,3,5,-1,-1,7,9,11,-1,-1,13,-1,-1,-1,-1],"loss_changes":[5.676767E1,5.6064415E-1,3.6843132E1,0E0,0E0,1.3716835E1,8.001317E0,1.1624176E1,0E0,0E0,7.4478984E0,0E0,0E0,0E0,0E0],"parents":[2147483647,0,0,1,1,2,2,5,5,6,6,7,7,10,10],"right_children":[2,4,6,-1,-1,8,10,12,-1,-1,14,-1,-1,-1,-1],"split_conditions":[-4.2555162E-1,1E0,8.8900983E-1,-1.34755E-1,7.0749186E-3,3.89999E-1,5.487832E-1,-1.1911714E-1,-1.34579E-1,-1.3064459E-1,-7.7077955E-1,2.0046774E-1,8.25656E-2,2.613842E-1,-1.1200993E-1],"split_indices":[3,23,3,0,0,7,12,1,0,0,6,0,0,0,0],"split_type":[0,0,0,0,0,0,0,0,0,0,0,0,0,0,0],"sum_hessian":[3.7394162E2,1.0102805E2,2.7291357E2,9.943833E1,1.5897205E0,2.135839E2,5.932968E1,2.030869E2,1.0496992E1,4.83186E1,1.1011082E1,1.0147742E2,1.0160948E2,5.9042745E0,5.106807E0],"tree_param":{"num_deleted":"0","num_feature":"26","num_nodes":"15","size_leaf_vector":"1"}},{"base_weights":[-4.7699023E-2,-5.2930975E-1,4.6213576E-1,-5.40031E-1,-1.1262604E-1,-5.0236154E-1,7.5601894E-1,-1.332793E-1,-3.4042463E-1,-1.0616374E-1,1.528878E-1,3.2231092E-2,-1.2865797E-1,-1.0359496E-1,8.455532E-1,5.4042805E-2,-1.1333084E-1,-1.2218576E-1,1.8118492E-1,1.1297267E-1,2.4042664E-1],"categories":[],"categories_nodes":[],"categories_segments":[],"categories_sizes":[],"default_left":[0,0,0,0,0,0,0,0,0,0,0,0,0,0,0,0,0,0,0,0,0],"id":26,"left_children":[1,3,5,7,9,11,13,-1,15,-1,-1,-1,-1,17,19,-1,-1,-1,-1,-1,-1],"loss_changes":[7.941379E1,6.819649E-1,4.492606E1,7.2250366E-3,1.5666802E0,6.544876E-1,9.389114E0,0E0,6.150689E-1,0E0,0E0,0E0,0E0,4.4986587E0,5.390068E0,0E0,0E0,0E0,0E0,0E0,0E0],"parents":[2147483647,0,0,1,1,2,2,3,3,4,4,5,5,6,6,8,8,13,13,14,14],"right_children":[2,4,6,8,10,12,14,-1,16,-1,-1,-1,-1,18,20,-1,-1,-1,-1,-1,-1],"split_conditions":[4.8448673E-1,4.1828206E-1,1E0,2.4989891E-1,6.432504E-1,-1.656764E0,-4.7528338E-1,-1.332793E-1,-6.85939E-1,-1.0616374E-1,1.528878E-1,3.2231092E-2,-1.2865797E-1,-7.7077955E-1,8.8900983E-1,5.4042805E-2,-1.1333084E-1,-1.2218576E-1,1.8118492E-1,1.1297267E-1,2.4042664E-1],"split_indices":[3,3,0,3,6,9,1,0,12,0,0,0,0,6,3,0,0,0,0,0,0],"split_type":[0,0,0,0,0,0,0,0,0,0,0,0,0,0,0,0,0,0,0,0,0],"sum_hessian":[3.214263E2,1.6526862E2,1.5615767E2,1.6083432E2,4.434298E0,3.6303513E1,1.1985416E2,1.5447275E2,6.361579E0,3.374125E0,1.0601728E0,1.1984391E0,3.5105076E1,1.1291175E1,1.0856299E2,1.0068963E0,5.3546824E0,7.962536E0,3.3286395E0,3.0138966E1,7.842402E1],"tree_param":{"num_deleted":"0","num_feature":"26","num_nodes":"21","size_leaf_vector":"1"}},{"base_weights":[7.2434354E-3,-1.3314326E-1,5.869322E-1,-1.3036324E-1,8.9213425E-1,2.324645E-1,-3.4801444E-1,4.2671718E-2,-1.1732435E-1],"categories":[],"categories_nodes":[],"categories_segments":[],"categories_sizes":[],"default_left":[0,0,0,0,0,0,0,0,0],"id":27,"left_children":[1,-1,3,-1,5,-1,7,-1,-1],"loss_changes":[1.07335E2,0E0,5.6417168E1,0E0,9.955559E0,0E0,5.486474E-1,0E0,0E0],"parents":[2147483647,0,0,2,2,4,4,6,6],"right_children":[2,-1,4,-1,6,-1,8,-1,-1],"split_conditions":[1.0895194E0,-1.3314326E-1,5.353715E-1,-1.3036324E-1,1E0,2.324645E-1,-2.3992416E-1,4.2671718E-2,-1.1732435E-1],"split_indices":[6,0,3,0,0,0,1,0,0],"split_type":[0,0,0,0,0,0,0,0,0],"sum_hessian":[3.3301328E2,1.7050607E2,1.6250722E2,3.4615616E1,1.278916E2,1.22191284E2,5.700319E0,1.0890946E0,4.611224E0],"tree_param":{"num_deleted":"0","num_feature":"26","num_nodes":"9","size_leaf_vector":"1"}},{"base_weights":[-4.096197E-2,-1.8543096E-1,5.194298E-1,2.5092798E-1,-4.6437818E-1,6.545549E-1,3.820892E-2,1.30426055E-2,5.724686E-1,-4.9956915E-1,4.466803E-2,-9.319369E-2,7.1086407E-1,-1.0017929E-1,1.7760724E-1,-9.2425E-2,5.127048E-2,2.0806292E-1,7.50522E-2,-1.24866255E-1,-3.77172E-2,-1.08818814E-1,1.1122996E-1,6.390948E-2,1.9908145E-1,-2.4631048E-2,1.0780511E-1],"categories":[],"categories_nodes":[],"categories_segments":[],"categories_sizes":[],"default_left":[0,0,0,0,0,0,0,0,0,0,0,0,0,0,0,0,0,0,0,0,0,0,0,0,0,0,0],"id":28,"left_children":[1,3,5,7,9,11,13,15,17,19,21,-1,23,-1,25,-1,-1,-1,-1,-1,-1,-1,-1,-1,-1,-1,-1],"loss_changes":[2.4640568E1,2.9544714E1,4.0325947E0,7.253783E0,2.6706257E0,3.1108856E0,9.948302E-1,4.368646E0,2.7304878E0,4.925995E-1,2.3152163E0,0E0,1.9730434E0,0E0,9.230238E-1,0E0,0E0,0E0,0E0,0E0,0E0,0E0,0E0,0E0,0E0,0E0,0E0],"parents":[2147483647,0,0,1,1,2,2,3,3,4,4,5,5,6,6,7,7,8,8,9,9,10,10,12,12,14,14],"right_children":[2,4,6,8,10,12,14,16,18,20,22,-1,24,-1,26,-1,-1,-1,-1,-1,-1,-1,-1,-1,-1,-1,-1],"split_conditions":[1E0,-6.7136145E-1,1E0,9.2032886E-1,6.991282E-1,1E0,-1.1950413E0,1E0,1E0,1E0,5.115663E-1,-9.319369E-2,-7.7077955E-1,-1.0017929E-1,1E0,-9.2425E-2,5.127048E-2,2.0806292E-1,7.50522E-2,-1.24866255E-1,-3.77172E-2,-1.08818814E-1,1.1122996E-1,6.390948E-2,1.9908145E-1,-2.4631048E-2,1.0780511E-1],"split_indices":[14,1,0,11,7,24,11,19,24,16,2,0,6,0,20,0,0,0,0,0,0,0,0,0,0,0,0],"split_type":[0,0,0,0,0,0,0,0,0,0,0,0,0,0,0,0,0,0,0,0,0,0,0,0,0,0,0],"sum_hessian":[3.0216797E2,2.4076727E2,6.1400696E1,9.393094E1,1.4683633E2,4.765824E1,1.3742454E1,5.4586655E1,3.9344284E1,1.3735916E2,9.4771805E0,2.1581566E0,4.5500084E1,2.7969828E0,1.0945471E1,1.7958534E1,3.662812E1,1.8056E1,2.1288286E1,1.3228615E2,5.0730143E0,4.282329E0,5.1948514E0,9.266111E0,3.6233974E1,5.627424E0,5.3180475E0],"tree_param":{"num_deleted":"0","num_feature":"26","num_nodes":"27","size_leaf_vector":"1"}},{"base_weights":[-1.0752271E-2,4.1219524E-1,-4.1787532E-1,1.9303478E-2,5.2023417E-1,3.2715568E-1,-4.969592E-1,3.6018097E-1,-4.9113673E-1,-1.8450682E-1,6.0423046E-1,-1.2157303E-1,6.974689E-1,-5.152566E-1,2.1270607E-1,-7.386379E-2,2.1266058E-1,2.5559901E-3,-1.327435E-1,6.193834E-2,-1.2478136E-1,1.8406565E-1,3.7847746E-2,2.2544684E-1,-8.695861E-2,-3.789689E-2,-1.2978405E-1,2.769932E-1,-9.5812015E-2],"categories":[],"categories_nodes":[],"categories_segments":[],"categories_sizes":[],"default_left":[0,0,0,0,0,0,0,0,0,0,0,0,0,0,0,0,0,0,0,0,0,0,0,0,0,0,0,0,0],"id":29,"left_children":[1,3,5,7,9,11,13,15,17,19,21,-1,23,25,27,-1,-1,-1,-1,-1,-1,-1,-1,-1,-1,-1,-1,-1,-1],"loss_changes":[5.526816E1,6.6728096E0,9.79781E0,6.2657948E0,7.418808E0,5.32713E0,2.0344315E0,7.5656977E0,3.8711786E-1,2.1215382E0,7.3222046E0,0E0,3.108406E0,7.7409744E-1,2.9196374E0,0E0,0E0,0E0,0E0,0E0,0E0,0E0,0E0,0E0,0E0,0E0,0E0,0E0,0E0],"parents":[2147483647,0,0,1,1,2,2,3,3,4,4,5,5,6,6,7,7,8,8,9,9,10,10,12,12,13,13,14,14],"right_children":[2,4,6,8,10,12,14,16,18,20,22,-1,24,26,28,-1,-1,-1,-1,-1,-1,-1,-1,-1,-1,-1,-1,-1,-1],"split_conditions":[-5.4075843E-1,-1.3394271E0,1E0,-1.0852243E0,-1.5366389E0,2.1836224E-1,2.318995E0,-1.5664737E0,-1.1950413E0,-1.0287726E0,-8.480202E-3,-1.2157303E-1,3.3166E-2,1E0,-2.4181552E-1,-7.386379E-2,2.1266058E-1,2.5559901E-3,-1.327435E-1,6.193834E-2,-1.2478136E-1,1.8406565E-1,3.7847746E-2,2.2544684E-1,-8.695861E-2,-3.789689E-2,-1.2978405E-1,2.769932E-1,-9.5812015E-2],"split_indices":[3,3,15,2,2,2,11,3,11,3,9,0,3,4,3,0,0,0,0,0,0,0,0,0,0,0,0,0,0],"split_type":[0,0,0,0,0,0,0,0,0,0,0,0,0,0,0,0,0,0,0,0,0,0,0,0,0,0,0,0,0],"sum_hessian":[3.1896854E2,1.5643774E2,1.6253079E2,3.3994144E1,1.224436E2,1.5295803E1,1.4723499E2,2.0558996E1,1.3435148E1,1.2912156E1,1.0953145E2,4.631037E0,1.0664765E1,1.4380128E2,3.4336932E0,9.128141E0,1.1430855E1,1.3529688E0,1.2082179E1,5.609847E0,7.302309E0,8.162452E1,2.7906927E1,8.882158E0,1.7826076E0,6.733664E0,1.3706763E2,1.01396E0,2.4197333E0],"tree_param":{"num_deleted":"0","num_feature":"26","num_nodes":"29","size_leaf_vector":"1"}},{"base_weights":[2.2296546E-2,1.250656E-1,-2.736418E-1,3.652044E-1,-9.670461E-2,-3.8171017E-1,3.6681017E-1,7.477192E-1,1.4380608E-1,3.8479796E-1,-1.6811344E-1,-4.5502067E-1,3.3601946E-1,6.0378325E-1,-1.0989873E-1,2.0808056E-1,-1.0738112E-1,8.744733E-3,2.8899187E-1,-2.395777E-2,1.7307422E-1,-1.1383179E-1,-8.347839E-3,-1.28212E-1,-5.884578E-2,-8.939215E-2,1.4745747E-1,7.2815105E-2,2.607085E-1],"categories":[],"categories_nodes":[],"categories_segments":[],"categories_sizes":[],"default_left":[0,0,0,0,0,0,0,0,0,0,0,0,0,0,0,0,0,0,0,0,0,0,0,0,0,0,0,0,0],"id":30,"left_children":[1,3,5,7,9,11,13,15,17,19,21,23,25,27,-1,-1,-1,-1,-1,-1,-1,-1,-1,-1,-1,-1,-1,-1,-1],"loss_changes":[1.0110456E1,1.3168121E1,6.072276E0,9.936982E0,4.4999437E0,4.0374155E0,2.7664793E0,5.753647E0,8.534064E0,2.725935E0,4.498081E0,8.862057E-1,1.6175075E0,1.1584761E0,0E0,0E0,0E0,0E0,0E0,0E0,0E0,0E0,0E0,0E0,0E0,0E0,0E0,0E0,0E0],"parents":[2147483647,0,0,1,1,2,2,3,3,4,4,5,5,6,6,7,7,8,8,9,9,10,10,11,11,12,12,13,13],"right_children":[2,4,6,8,10,12,14,16,18,20,22,24,26,28,-1,-1,-1,-1,-1,-1,-1,-1,-1,-1,-1,-1,-1,-1,-1],"split_conditions":[1.0895194E0,-3.5590583E-1,2.824307E-1,-5.2912104E-1,1E0,1.5187016E0,-1.0827174E0,1E0,1E0,-1.8394862E-1,1E0,5.392545E-1,1E0,6.364541E-1,-1.0989873E-1,2.0808056E-1,-1.0738112E-1,8.744733E-3,2.8899187E-1,-2.395777E-2,1.7307422E-1,-1.1383179E-1,-8.347839E-3,-1.28212E-1,-5.884578E-2,-8.939215E-2,1.4745747E-1,7.2815105E-2,2.607085E-1],"split_indices":[6,1,1,12,4,12,12,14,10,1,19,2,19,2,0,0,0,0,0,0,0,0,0,0,0,0,0,0,0],"split_type":[0,0,0,0,0,0,0,0,0,0,0,0,0,0,0,0,0,0,0,0,0,0,0,0,0,0,0,0,0],"sum_hessian":[3.303101E2,2.455994E2,8.471069E1,1.17605835E2,1.2799355E2,7.282617E1,1.1884521E1,4.2243507E1,7.536233E1,1.5963645E1,1.1202991E2,6.6409035E1,6.4171376E0,9.414844E0,2.4696763E0,3.9079548E1,3.1639621E0,6.9211464E1,6.150865E0,6.6925573E0,9.271088E0,3.3947468E1,7.808244E1,4.8901703E1,1.7507332E1,1.6717602E0,4.7453775E0,6.669176E0,2.7456675E0],"tree_param":{"num_deleted":"0","num_feature":"26","num_nodes":"29","size_leaf_vector":"1"}},{"base_weights":[-1.0357353E-2,1.2453668E-1,-1.2989111E-1,-2.6858646E-1,3.898128E-1,2.1413781E-1,-5.0983024E-1,-4.8904878E-1,5.286899E-1,1.4631583E-1,-1.2686604E-1,-1.2772456E-1,1.807351E-2,-3.3025812E-2,-1.2953155E-1,2.023636E-1,6.086043E-2],"categories":[],"categories_nodes":[],"categories_segments":[],"categories_sizes":[],"default_left":[0,0,0,0,0,0,0,0,0,0,0,0,0,0,0,0,0],"id":31,"left_children":[1,3,-1,5,7,9,11,13,15,-1,-1,-1,-1,-1,-1,-1,-1],"loss_changes":[2.2963478E1,2.7146278E1,0E0,1.2344727E1,1.9205465E1,1.0409862E1,5.900898E-1,2.4762392E-1,1.1080929E1,0E0,0E0,0E0,0E0,0E0,0E0,0E0,0E0],"parents":[2147483647,0,0,1,1,3,3,4,4,5,5,6,6,7,7,8,8],"right_children":[2,4,-1,6,8,10,12,14,16,-1,-1,-1,-1,-1,-1,-1,-1],"split_conditions":[5.9556395E-1,-3.5555863E-1,-1.2989111E-1,1E0,-5.5629337E-1,-7.574153E-1,1E0,-3.1589332E-1,-5.0037153E-2,1.4631583E-1,-1.2686604E-1,-1.2772456E-1,1.807351E-2,-3.3025812E-2,-1.2953155E-1,2.023636E-1,6.086043E-2],"split_indices":[3,3,0,5,2,2,8,3,3,0,0,0,0,0,0,0,0],"split_type":[0,0,0,0,0,0,0,0,0,0,0,0,0,0,0,0,0],"sum_hessian":[3.2431934E2,2.5830164E2,6.6017685E1,1.04067474E2,1.5423416E2,3.471526E1,6.935222E1,2.070219E1,1.3353197E2,2.2884357E1,1.1830904E1,6.789523E1,1.4569858E0,2.6261055E0,1.8076086E1,6.34018E1,7.013017E1],"tree_param":{"num_deleted":"0","num_feature":"26","num_nodes":"17","size_leaf_vector":"1"}},{"base_weights":[5.785954E-2,-5.319894E-1,2.4977528E-1,-1.324773E-1,1.3424253E-2,6.202058E-1,8.1287315E-3,1.1057943E0,-5.3382486E-1,-1.4700033E-1,3.5694215E-1,1.521303E-1,3.6137754E-1,3.928798E-2,-1.3705164E-1,1.8800592E-1,-8.327577E-2],"categories":[],"categories_nodes":[],"categories_segments":[],"categories_sizes":[],"default_left":[0,0,0,0,0,0,0,0,0,0,0,0,0,0,0,0,0],"id":32,"left_children":[1,3,5,-1,-1,7,9,11,13,-1,15,-1,-1,-1,-1,-1,-1],"loss_changes":[4.0690987E1,5.860348E-1,2.4253815E1,0E0,0E0,6.0540314E1,3.5349133E1,1.2749908E1,7.1171284E-1,0E0,3.0740427E1,0E0,0E0,0E0,0E0,0E0,0E0],"parents":[2147483647,0,0,1,1,2,2,5,5,6,6,7,7,8,8,10,10],"right_children":[2,4,6,-1,-1,8,10,12,14,-1,16,-1,-1,-1,-1,-1,-1],"split_conditions":[-4.2555162E-1,1E0,-7.9399064E-2,-1.324773E-1,1.3424253E-2,3.9655215E-1,1.7679195E-1,-1.896548E-1,4.722744E-1,-1.4700033E-1,9.514537E-1,1.521303E-1,3.6137754E-1,3.928798E-2,-1.3705164E-1,1.8800592E-1,-8.327577E-2],"split_indices":[3,23,2,0,0,3,3,3,6,0,3,0,0,0,0,0,0],"split_type":[0,0,0,0,0,0,0,0,0,0,0,0,0,0,0,0,0],"sum_hessian":[3.5728308E2,8.727457E1,2.700085E2,8.5781334E1,1.4932317E0,1.0598022E2,1.640283E2,7.462261E1,3.135761E1,5.9387093E1,1.0464121E2,3.3779556E1,4.0843052E1,1.0151427E0,3.0342468E1,6.566502E1,3.897618E1],"tree_param":{"num_deleted":"0","num_feature":"26","num_nodes":"17","size_leaf_vector":"1"}},{"base_weights":[-5.0003424E-2,-5.248413E-1,3.915881E-1,-1.3133189E-1,-2.6289162E-1,-4.8604092E-1,6.083844E-1,1.6636506E-1,-1.1675907E-1,3.948046E-2,-1.258828E-1,2.513356E-1,7.940151E-1,2.2308248E-1,-1.4020327E-1,-9.682841E-2,2.0230436E-1],"categories":[],"categories_nodes":[],"categories_segments":[],"categories_sizes":[],"default_left":[0,0,0,0,0,0,0,0,0,0,0,0,0,0,0,0,0],"id":33,"left_children":[1,3,5,-1,7,9,11,-1,-1,-1,-1,13,15,-1,-1,-1,-1],"loss_changes":[6.1602615E1,3.4750366E-1,2.927095E1,0E0,2.1042533E0,6.738229E-1,7.923935E0,0E0,0E0,0E0,0E0,2.426221E1,3.6481705E0,0E0,0E0,0E0,0E0],"parents":[2147483647,0,0,1,1,2,2,4,4,5,5,6,6,11,11,12,12],"right_children":[2,4,6,-1,8,10,12,-1,-1,-1,-1,14,16,-1,-1,-1,-1],"split_conditions":[4.5579723E-1,2.4989891E-1,1E0,-1.3133189E-1,-1.4621173E0,5.9556395E-1,8.8900983E-1,1.6636506E-1,-1.1675907E-1,3.948046E-2,-1.258828E-1,5.115663E-1,-4.7528338E-1,2.2308248E-1,-1.4020327E-1,-9.682841E-2,2.0230436E-1],"split_indices":[3,3,0,0,9,3,3,0,0,0,0,2,1,0,0,0,0],"split_type":[0,0,0,0,0,0,0,0,0,0,0,0,0,0,0,0,0],"sum_hessian":[2.918072E2,1.4051964E2,1.5128755E2,1.3278001E2,7.7396245E0,2.9722755E1,1.215648E2,1.035707E0,6.7039175E0,1.1066484E0,2.8616108E1,4.2388054E1,7.917674E1,2.3457943E1,1.893011E1,1.9511851E0,7.7225555E1],"tree_param":{"num_deleted":"0","num_feature":"26","num_nodes":"17","size_leaf_vector":"1"}},{"base_weights":[-5.0479006E-3,-1.311883E-1,5.073841E-1,-1.2523653E-1,6.381787E-1,7.590503E-1,-1.3421941E-1,1.9208996E-1,-9.978195E-2,6.886171E-2,-1.00952685E-1],"categories":[],"categories_nodes":[],"categories_segments":[],"categories_sizes":[],"default_left":[0,0,0,0,0,0,0,0,0,0,0],"id":34,"left_children":[1,-1,3,-1,5,7,9,-1,-1,-1,-1],"loss_changes":[8.093577E1,0E0,2.0504269E1,0E0,1.2653671E1,4.1129456E0,2.3313026E0,0E0,0E0,0E0,0E0],"parents":[2147483647,0,0,2,2,4,4,5,5,6,6],"right_children":[2,-1,4,-1,6,8,10,-1,-1,-1,-1],"split_conditions":[1.0895194E0,-1.311883E-1,-1.060573E0,-1.2523653E-1,5.487832E-1,1E0,-1.4143002E0,1.9208996E-1,-9.978195E-2,6.886171E-2,-1.00952685E-1],"split_indices":[6,0,12,0,12,0,9,0,0,0,0],"split_type":[0,0,0,0,0,0,0,0,0,0,0],"sum_hessian":[2.9466827E2,1.4449521E2,1.5017308E2,1.6729422E1,1.3344366E2,1.1540185E2,1.8041813E1,1.1302869E2,2.37316E0,7.2408533E0,1.0800959E1],"tree_param":{"num_deleted":"0","num_feature":"26","num_nodes":"11","size_leaf_vector":"1"}},{"base_weights":[-1.6826116E-2,6.1591643E-1,-5.214445E-1,3.6205682E-1,8.155662E-1,-5.332291E-1,-4.3588858E-2,7.52024E-1,-4.6031606E-1,8.265375E-1,6.3135065E-2,-1.3158059E-1,-2.757878E-1,1.544471E-1,-9.771652E-2,9.3076564E-2,2.0746161E-1,-1.7160902E-2,-1.2953904E-1,2.037461E-1,6.3445315E-2,-1.0413802E-1,4.4927023E-2],"categories":[],"categories_nodes":[],"categories_segments":[],"categories_sizes":[],"default_left":[0,0,0,0,0,0,0,0,0,0,0,0,0,0,0,0,0,0,0,0,0,0,0],"id":35,"left_children":[1,3,5,7,9,11,13,15,17,19,-1,-1,21,-1,-1,-1,-1,-1,-1,-1,-1,-1,-1],"loss_changes":[9.360623E1,6.2977066E0,8.9510345E-1,1.9288252E1,2.2625732E-1,8.968353E-2,1.4629676E0,1.1436539E0,5.0115013E-1,1.072731E-1,0E0,0E0,4.644765E-1,0E0,0E0,0E0,0E0,0E0,0E0,0E0,0E0,0E0,0E0],"parents":[2147483647,0,0,1,1,2,2,3,3,4,4,5,5,6,6,7,7,8,8,9,9,12,12],"right_children":[2,4,6,8,10,12,14,16,18,20,-1,-1,22,-1,-1,-1,-1,-1,-1,-1,-1,-1,-1],"split_conditions":[-9.231751E-1,-3.4019607E-1,1.9216392E0,-1.3779885E0,1E0,1.6342529E0,-7.358862E-2,-7.7077955E-1,-1.3521245E0,1.6391108E0,6.3135065E-2,-1.3158059E-1,9.4768596E-1,1.544471E-1,-9.771652E-2,9.3076564E-2,2.0746161E-1,-1.7160902E-2,-1.2953904E-1,2.037461E-1,6.3445315E-2,-1.0413802E-1,4.4927023E-2],"split_indices":[3,2,2,3,13,2,3,6,3,9,0,0,6,0,0,0,0,0,0,0,0,0,0],"split_type":[0,0,0,0,0,0,0,0,0,0,0,0,0,0,0,0,0,0,0,0,0,0,0],"sum_hessian":[2.9116083E2,1.2908286E2,1.6207796E2,5.8065098E1,7.101776E1,1.58064E2,4.013957E0,3.9445625E1,1.8619473E1,6.9170975E1,1.846793E0,1.5349959E2,4.564416E0,1.1189213E0,2.8950357E0,9.262637E0,3.0182987E1,3.1515646E0,1.5467908E1,6.772322E1,1.4477539E0,3.4914017E0,1.0730144E0],"tree_param":{"num_deleted":"0","num_feature":"26","num_nodes":"23","size_leaf_vector":"1"}},{"base_weights":[-1.8696247E-2,2.7577972E-1,-4.6664834E-1,4.5040724E-1,9.54291E-2,1.5792362E-1,-5.146502E-1,5.9537584E-1,5.3585347E-2,-1.3751557E-1,4.393038E-1,-1.0956151E-1,5.9622073E-1,-5.2219254E-1,-1.1604324E-2,3.0055898E-4,1.7715423E-1,-9.9619865E-2,2.7772358E-1,-7.389506E-2,1.3766827E-1,2.5658244E-1,-3.3897705E-2,-7.238775E-2,-1.2945923E-1],"categories":[],"categories_nodes":[],"categories_segments":[],"categories_sizes":[],"default_left":[0,0,0,0,0,0,0,0,0,0,0,0,0,0,0,0,0,0,0,0,0,0,0,0,0],"id":36,"left_children":[1,3,5,7,9,11,13,15,17,-1,19,-1,21,23,-1,-1,-1,-1,-1,-1,-1,-1,-1,-1,-1],"loss_changes":[3.9586334E1,5.6608534E0,3.6494312E0,5.245882E0,2.071845E1,2.7300873E0,3.6538124E-1,5.1966476E0,1.3302472E1,0E0,5.715845E0,0E0,2.0874076E0,4.337883E-2,0E0,0E0,0E0,0E0,0E0,0E0,0E0,0E0,0E0,0E0,0E0],"parents":[2147483647,0,0,1,1,2,2,3,3,4,4,5,5,6,6,7,7,8,8,10,10,12,12,13,13],"right_children":[2,4,6,8,10,12,14,16,18,-1,20,-1,22,24,-1,-1,-1,-1,-1,-1,-1,-1,-1,-1,-1],"split_conditions":[-3.5555863E-1,-7.7077955E-1,1E0,-6.875571E-1,1.0895194E0,8.5215276E-1,1E0,-7.879057E-1,2.3223867E-1,-1.3751557E-1,-1.3779885E0,-1.0956151E-1,-5.0037153E-2,1E0,-1.1604324E-2,3.0055898E-4,1.7715423E-1,-9.9619865E-2,2.7772358E-1,-7.389506E-2,1.3766827E-1,2.5658244E-1,-3.3897705E-2,-7.238775E-2,-1.2945923E-1],"split_indices":[3,6,15,3,6,2,25,6,2,0,3,0,3,5,0,0,0,0,0,0,0,0,0,0,0],"split_type":[0,0,0,0,0,0,0,0,0,0,0,0,0,0,0,0,0,0,0,0,0,0,0,0,0],"sum_hessian":[2.9812292E2,1.8010764E2,1.1801529E2,9.0744934E1,8.93627E1,8.259374E0,1.0975592E2,6.609754E1,2.4647387E1,3.0428911E1,5.893379E1,3.453867E0,4.8055067E0,1.0789583E2,1.8600873E0,1.2075808E1,5.4021736E1,1.7723364E1,6.924023E0,8.272764E0,5.0661022E1,2.7028372E0,2.1026695E0,5.071943E0,1.0282389E2],"tree_param":{"num_deleted":"0","num_feature":"26","num_nodes":"25","size_leaf_vector":"1"}},{"base_weights":[1.9208177E-3,1.6779962E-1,-5.192764E-1,-3.315575E-1,2.8900135E-1,-1.2980545E-1,2.1468153E-2,2.1830915E-1,-1.2810688E-1,4.7346908E-1,1.1141928E-1,-1.1397734E-1,1.841468E-1,-6.2670164E-2,1.5282041E-1,1.0337299E-1,-3.8539257E-2],"categories":[],"categories_nodes":[],"categories_segments":[],"categories_sizes":[],"default_left":[0,0,0,0,0,0,0,0,0,0,0,0,0,0,0,0,0],"id":37,"left_children":[1,3,5,7,9,-1,-1,11,-1,13,15,-1,-1,-1,-1,-1,-1],"loss_changes":[2.7440634E1,1.4667271E1,6.28458E-1,5.161079E0,6.3111935E0,0E0,0E0,5.148517E0,0E0,1.0744013E1,8.495485E0,0E0,0E0,0E0,0E0,0E0,0E0],"parents":[2147483647,0,0,1,1,2,2,3,3,4,4,7,7,9,9,10,10],"right_children":[2,4,6,8,10,-1,-1,12,-1,14,16,-1,-1,-1,-1,-1,-1],"split_conditions":[1.2707815E-1,-9.610162E-1,1.3075775E0,-1.568712E0,-3.5590583E-1,-1.2980545E-1,2.1468153E-2,-1.3709959E0,-1.2810688E-1,1E0,-3.9339975E-1,-1.1397734E-1,1.841468E-1,-6.2670164E-2,1.5282041E-1,1.0337299E-1,-3.8539257E-2],"split_indices":[3,3,7,2,1,0,0,3,0,5,3,0,0,0,0,0,0],"split_type":[0,0,0,0,0,0,0,0,0,0,0,0,0,0,0,0,0],"sum_hessian":[3.1538797E2,2.397591E2,7.5628876E1,4.6488514E1,1.9327058E2,7.422504E1,1.4038386E0,1.2056313E1,3.44322E1,9.398016E1,9.929042E1,5.3486013E0,6.707711E0,1.6126644E1,7.785352E1,4.572797E1,5.356245E1],"tree_param":{"num_deleted":"0","num_feature":"26","num_nodes":"17","size_leaf_vector":"1"}},{"base_weights":[-8.9076E-3,1.02890715E-1,-1.277249E-1,-4.7688383E-1,2.3847893E-1,1.8869887E-1,-1.3012753E-1,5.8262074E-1,1.6013566E-1,-1.4495913E-2,1.9787683E-1,-1.2127683E-1,7.283063E-2],"categories":[],"categories_nodes":[],"categories_segments":[],"categories_sizes":[],"default_left":[0,0,0,0,0,0,0,0,0,0,0,0,0],"id":38,"left_children":[1,3,-1,5,7,-1,-1,9,11,-1,-1,-1,-1],"loss_changes":[1.7744743E1,2.0045908E1,0E0,3.8122368E0,5.4651337E0,0E0,0E0,5.589305E0,1.552434E1,0E0,0E0,0E0,0E0],"parents":[2147483647,0,0,1,1,3,3,4,4,7,7,8,8],"right_children":[2,4,-1,6,8,-1,-1,10,12,-1,-1,-1,-1],"split_conditions":[5.9556395E-1,-8.85334E-1,-1.277249E-1,-2.1723363E0,1E0,1.8869887E-1,-1.3012753E-1,1E0,-5.5629337E-1,-1.4495913E-2,1.9787683E-1,-1.2127683E-1,7.283063E-2],"split_indices":[3,3,0,2,5,0,0,24,2,0,0,0,0],"split_type":[0,0,0,0,0,0,0,0,0,0,0,0,0],"sum_hessian":[3.0665155E2,2.5255594E2,5.4095596E1,4.739178E1,2.0516417E2,1.4908022E0,4.5900978E1,3.68509E1,1.6831326E2,9.852067E0,2.6998833E1,2.8807152E1,1.3950612E2],"tree_param":{"num_deleted":"0","num_feature":"26","num_nodes":"13","size_leaf_vector":"1"}},{"base_weights":[7.0096605E-2,-5.0453514E-1,2.4622329E-1,-1.3109833E-1,9.864535E-2,3.5363004E-1,-2.9616517E-1,1.7418112E-1,-9.7191915E-2,3.887719E-1,-1.2776908E-1,-1.2569559E-1,4.084656E-1,7.772855E-2,2.0408231E-1,2.1704629E-1,-1.02406695E-1],"categories":[],"categories_nodes":[],"categories_segments":[],"categories_sizes":[],"default_left":[0,0,0,0,0,0,0,0,0,0,0,0,0,0,0,0,0],"id":39,"left_children":[1,3,5,-1,7,9,11,-1,-1,13,-1,-1,15,-1,-1,-1,-1],"loss_changes":[3.451611E1,1.6240635E0,1.5295974E1,0E0,1.7939328E0,6.9262943E0,6.938788E0,0E0,0E0,6.3500366E0,0E0,0E0,4.711014E0,0E0,0E0,0E0,0E0],"parents":[2147483647,0,0,1,1,2,2,4,4,5,5,6,6,9,9,12,12],"right_children":[2,4,6,-1,8,10,12,-1,-1,14,-1,-1,16,-1,-1,-1,-1],"split_conditions":[-3.9339975E-1,1.9594325E0,8.8900983E-1,-1.3109833E-1,-4.0443683E-1,3.89999E-1,5.487832E-1,1.7418112E-1,-9.7191915E-2,7.0399207E-1,-1.2776908E-1,-1.2569559E-1,-3.0400693E-1,7.772855E-2,2.0408231E-1,2.1704629E-1,-1.02406695E-1],"split_indices":[3,1,3,0,9,7,12,0,0,3,0,0,1,0,0,0,0],"split_type":[0,0,0,0,0,0,0,0,0,0,0,0,0,0,0,0,0],"sum_hessian":[3.388139E2,7.9047745E1,2.5976614E2,7.510572E1,3.9420247E0,2.1711905E2,4.26471E1,1.566637E0,2.3753877E0,2.0929004E2,7.8290052E0,3.274848E1,9.898614E0,1.8232985E2,2.6960186E1,6.2159224E0,3.6826916E0],"tree_param":{"num_deleted":"0","num_feature":"26","num_nodes":"17","size_leaf_vector":"1"}},{"base_weights":[-5.361259E-2,-4.2829198E-1,2.5962278E-1,-2.658378E-1,-4.9827585E-1,-4.6015555E-1,4.7636586E-1,-1.2596673E-1,8.588801E-2,-2.7975845E-1,-1.2716502E-1,-5.0697368E-2,-1.2553123E-1,5.4865766E-1,-3.559343E-1,-1.1522399E-1,1.3873641E-1,-1.14707075E-1,8.100266E-2,1.3982727E-1,-9.757919E-2,7.236587E-2,1.5593508E-1,2.6907349E-2,-1.2036829E-1],"categories":[],"categories_nodes":[],"categories_segments":[],"categories_sizes":[],"default_left":[0,0,0,0,0,0,0,0,0,0,0,0,0,0,0,0,0,0,0,0,0,0,0,0,0],"id":40,"left_children":[1,3,5,7,9,11,13,-1,15,17,-1,19,-1,21,23,-1,-1,-1,-1,-1,-1,-1,-1,-1,-1],"loss_changes":[3.0826551E1,1.226677E0,2.2554255E1,3.400652E0,2.6275253E-1,7.1932364E-1,6.845379E0,0E0,4.7664733E0,1.3085543E0,0E0,1.3251529E0,0E0,2.13196E0,6.579927E-1,0E0,0E0,0E0,0E0,0E0,0E0,0E0,0E0,0E0,0E0],"parents":[2147483647,0,0,1,1,2,2,3,3,4,4,5,5,6,6,8,8,9,9,11,11,13,13,14,14],"right_children":[2,4,6,8,10,12,14,-1,16,18,-1,20,-1,22,24,-1,-1,-1,-1,-1,-1,-1,-1,-1,-1],"split_conditions":[-1.531384E-1,1.7201753E-1,1E0,3.8293037E-1,-7.7464956E-1,-1.6626832E0,1.1468563E0,-1.2596673E-1,1E0,5.321547E-1,-1.2716502E-1,2.749962E-1,-1.2553123E-1,-7.7077955E-1,1.22998185E-1,-1.1522399E-1,1.3873641E-1,-1.14707075E-1,8.100266E-2,1.3982727E-1,-9.757919E-2,7.236587E-2,1.5593508E-1,2.6907349E-2,-1.2036829E-1],"split_indices":[1,7,0,6,6,9,11,0,0,2,0,1,0,6,1,0,0,0,0,0,0,0,0,0,0],"split_type":[0,0,0,0,0,0,0,0,0,0,0,0,0,0,0,0,0,0,0,0,0,0,0,0,0],"sum_hessian":[2.607128E2,1.1854582E2,1.4216699E2,3.713728E1,8.140854E1,3.2642395E1,1.095246E2,2.1427101E1,1.5710178E1,8.91019E0,7.249835E1,4.036373E0,2.8606022E1,1.0108534E2,8.439256E0,7.2954555E0,8.414722E0,6.973565E0,1.9366245E0,1.2185532E0,2.81782E0,2.7751669E1,7.333367E1,1.9634782E0,6.475777E0],"tree_param":{"num_deleted":"0","num_feature":"26","num_nodes":"25","size_leaf_vector":"1"}},{"base_weights":[-1.733763E-2,-1.298193E-1,4.6494943E-1,1.7908415E-1,-4.8648247E-1,-1.2639682E-1,2.6388424E-2],"categories":[],"categories_nodes":[],"categories_segments":[],"categories_sizes":[],"default_left":[0,0,0,0,0,0,0],"id":41,"left_children":[1,-1,3,-1,5,-1,-1],"loss_changes":[6.5023384E1,0E0,3.49417E1,0E0,6.22169E-1,0E0,0E0],"parents":[2147483647,0,0,2,2,4,4],"right_children":[2,-1,4,-1,6,-1,-1],"split_conditions":[5.9046876E-1,-1.298193E-1,1E0,1.7908415E-1,1.601044E0,-1.2639682E-1,2.6388424E-2],"split_indices":[3,0,0,0,3,0,0],"split_type":[0,0,0,0,0,0,0],"sum_hessian":[2.6005185E2,1.2577463E2,1.342772E2,1.0488408E2,2.939313E1,2.80445E1,1.3486288E0],"tree_param":{"num_deleted":"0","num_feature":"26","num_nodes":"7","size_leaf_vector":"1"}},{"base_weights":[-1.7531913E-2,5.4890203E-1,-5.113486E-1,3.144586E-1,7.1341556E-1,-5.2511024E-1,2.8770378E-2,6.441614E-1,-4.332905E-1,1.778105E-1,1.6361423E-1,-1.2985197E-1,-2.4271397E-1,1.6598782E-1,-9.1548376E-2,7.594209E-2,1.8058312E-1,-1.8631082E-2,-1.2523302E-1,-7.6935016E-2,1.3929565E-1,-9.908239E-2,4.5999587E-2],"categories":[],"categories_nodes":[],"categories_segments":[],"categories_sizes":[],"default_left":[0,0,0,0,0,0,0,0,0,0,0,0,0,0,0,0,0,0,0,0,0,0,0],"id":42,"left_children":[1,3,5,7,9,11,13,15,17,-1,19,-1,21,-1,-1,-1,-1,-1,-1,-1,-1,-1,-1],"loss_changes":[7.207907E1,4.4052773E0,1.0382576E0,1.2922761E1,4.57016E-1,1.3093185E-1,1.4037666E0,9.163265E-1,4.2464972E-1,0E0,7.928149E-1,0E0,4.2991805E-1,0E0,0E0,0E0,0E0,0E0,0E0,0E0,0E0,0E0,0E0],"parents":[2147483647,0,0,1,1,2,2,3,3,4,4,5,5,6,6,7,7,8,8,10,10,12,12],"right_children":[2,4,6,8,10,12,14,16,18,-1,20,-1,22,-1,-1,-1,-1,-1,-1,-1,-1,-1,-1],"split_conditions":[-9.231751E-1,-4.3826833E-1,1.9216392E0,-1.3779885E0,1E0,1.6342529E0,-7.358862E-2,-7.7077955E-1,-1.3521245E0,1.778105E-1,-1.2236318E-2,-1.2985197E-1,1E0,1.6598782E-1,-9.1548376E-2,7.594209E-2,1.8058312E-1,-1.8631082E-2,-1.2523302E-1,-7.6935016E-2,1.3929565E-1,-9.908239E-2,4.5999587E-2],"split_indices":[3,2,2,3,13,2,3,6,3,0,2,0,21,0,0,0,0,0,0,0,0,0,0],"split_type":[0,0,0,0,0,0,0,0,0,0,0,0,0,0,0,0,0,0,0,0,0,0,0],"sum_hessian":[2.5568452E2,1.190343E2,1.3665022E2,5.0285427E1,6.874888E1,1.3328212E2,3.3681035E0,3.499411E1,1.5291318E1,6.6603745E1,2.1451297E0,1.2925941E2,4.0227056E0,1.0273551E0,2.3407483E0,8.755898E0,2.623821E1,3.1499438E0,1.2141374E1,1.0893844E0,1.0557452E0,2.9606318E0,1.0620735E0],"tree_param":{"num_deleted":"0","num_feature":"26","num_nodes":"23","size_leaf_vector":"1"}},{"base_weights":[1.4698355E-3,3.0354363E-1,-3.867533E-1,5.2944444E-2,4.0727195E-1,2.4603382E-1,-4.6001494E-1,3.742727E-1,-1.3093482E-1,5.501641E-2,6.2931746E-1,-1.1073479E-1,5.2052253E-1,-4.962038E-1,4.251094E-1,-6.327858E-2,1.4419459E-1,1.10947296E-1,-1.16316505E-1,1.8985352E-2,1.9331795E-1,1.6964544E-1,-7.8984596E-2,-1.2321766E-1,4.540102E-2,1.7402011E-1,-1.8894924E-2],"categories":[],"categories_nodes":[],"categories_segments":[],"categories_sizes":[],"default_left":[0,0,0,0,0,0,0,0,0,0,0,0,0,0,0,0,0,0,0,0,0,0,0,0,0,0,0],"id":43,"left_children":[1,3,5,7,9,11,13,15,-1,17,19,-1,21,23,25,-1,-1,-1,-1,-1,-1,-1,-1,-1,-1,-1,-1],"loss_changes":[3.327952E1,4.126999E0,5.870224E0,9.266213E0,8.78236E0,2.8360295E0,3.7871742E0,4.481978E0,0E0,9.704238E0,6.132469E0,0E0,1.7253442E0,7.24802E-1,7.673279E-1,0E0,0E0,0E0,0E0,0E0,0E0,0E0,0E0,0E0,0E0,0E0,0E0],"parents":[2147483647,0,0,1,1,2,2,3,3,4,4,5,5,6,6,7,7,9,9,10,10,12,12,13,13,14,14],"right_children":[2,4,6,8,10,12,14,16,-1,18,20,-1,22,24,26,-1,-1,-1,-1,-1,-1,-1,-1,-1,-1,-1,-1],"split_conditions":[-4.8512727E-1,-1.1880628E0,1E0,-6.560032E-1,-5.5629337E-1,2.1836224E-1,1E0,-1.5664737E0,-1.3093482E-1,-8.4347767E-1,-9.9885726E-1,-1.1073479E-1,3.3166E-2,1E0,-3.666919E-2,-6.327858E-2,1.4419459E-1,1.10947296E-1,-1.16316505E-1,1.8985352E-2,1.9331795E-1,1.6964544E-1,-7.8984596E-2,-1.2321766E-1,4.540102E-2,1.7402011E-1,-1.8894924E-2],"split_indices":[3,3,15,2,2,2,25,3,0,3,3,0,3,10,1,0,0,0,0,0,0,0,0,0,0,0,0],"split_type":[0,0,0,0,0,0,0,0,0,0,0,0,0,0,0,0,0,0,0,0,0,0,0,0,0,0,0],"sum_hessian":[2.8177945E2,1.585955E2,1.2318396E2,4.687053E1,1.1172497E2,1.2537216E1,1.1064674E2,3.0568645E1,1.6301886E1,4.367934E1,6.804562E1,3.3486493E0,9.188567E0,1.0672271E2,3.9240327E0,7.734351E0,2.2834295E1,2.5019438E1,1.8659904E1,1.5833645E1,5.2211983E1,7.761069E0,1.4274981E0,1.0565316E2,1.0695527E0,2.2288384E0,1.6951941E0],"tree_param":{"num_deleted":"0","num_feature":"26","num_nodes":"27","size_leaf_vector":"1"}},{"base_weights":[7.131593E-3,1.364488E-1,-1.2699391E-1,-3.1399345E-1,2.3051278E-1,4.9017814E-1,-4.4631755E-1,1.0056663E-1,4.6259314E-1,1.6732553E-1,-7.301459E-3,-1.2689169E-1,1.4878662E-2,5.92437E-2,-3.9866697E-2,6.740135E-2,2.5786895E-1],"categories":[],"categories_nodes":[],"categories_segments":[],"categories_sizes":[],"default_left":[0,0,0,0,0,0,0,0,0,0,0,0,0,0,0,0,0],"id":44,"left_children":[1,3,-1,5,7,9,11,13,15,-1,-1,-1,-1,-1,-1,-1,-1],"loss_changes":[2.0658976E1,1.0377771E1,0E0,4.7348795E0,6.0387917E0,6.780447E-1,1.4104056E0,4.9394875E0,7.6974173E0,0E0,0E0,0E0,0E0,0E0,0E0,0E0,0E0],"parents":[2147483647,0,0,1,1,3,3,4,4,5,5,6,6,7,7,8,8],"right_children":[2,4,-1,6,8,10,12,14,16,-1,-1,-1,-1,-1,-1,-1,-1],"split_conditions":[1.581696E-1,-9.231751E-1,-1.2699391E-1,-1.956864E0,2.4252737E-2,-8.27059E-1,1E0,-2.6330504E-1,3.89999E-1,1.6732553E-1,-7.301459E-3,-1.2689169E-1,1.4878662E-2,5.92437E-2,-3.9866697E-2,6.740135E-2,2.5786895E-1],"split_indices":[3,3,0,2,9,1,10,3,7,0,0,0,0,0,0,0,0],"split_type":[0,0,0,0,0,0,0,0,0,0,0,0,0,0,0,0,0],"sum_hessian":[3.008734E2,2.4222153E2,5.8651886E1,4.1440098E1,2.0078143E2,5.4732437E0,3.5966854E1,1.296316E2,7.114983E1,3.7478158E0,1.7254276E0,3.1392153E1,4.574701E0,8.4303535E1,4.532806E1,5.526193E1,1.5887908E1],"tree_param":{"num_deleted":"0","num_feature":"26","num_nodes":"17","size_leaf_vector":"1"}},{"base_weights":[-4.268913E-3,9.357914E-2,-1.2594467E-1,-2.3712392E-1,2.7887988E-1,1.5224202E-1,-4.6168992E-1,-4.5738408E-1,3.689002E-1,-1.2325921E-1,1.3836342E-1,-1.282746E-1,-5.446369E-2,-1.2432201E-1,-1.295365E-2,1.2389287E-1,-1.2611406E-2],"categories":[],"categories_nodes":[],"categories_segments":[],"categories_sizes":[],"default_left":[0,0,0,0,0,0,0,0,0,0,0,0,0,0,0,0,0],"id":45,"left_children":[1,3,-1,5,7,9,11,13,15,-1,-1,-1,-1,-1,-1,-1,-1],"loss_changes":[1.4497471E1,1.4963827E1,0E0,7.751156E0,1.0525927E1,9.246105E0,7.3469925E-1,3.3979297E-1,8.178236E0,0E0,0E0,0E0,0E0,0E0,0E0,0E0,0E0],"parents":[2147483647,0,0,1,1,3,3,4,4,5,5,6,6,7,7,8,8],"right_children":[2,4,-1,6,8,10,12,14,16,-1,-1,-1,-1,-1,-1,-1,-1],"split_conditions":[5.9556395E-1,-3.5555863E-1,-1.2594467E-1,-1.0949744E0,-5.5629337E-1,-1.0287726E0,-5.4075843E-1,-6.6402954E-1,1.1319655E0,-1.2325921E-1,1.3836342E-1,-1.282746E-1,-5.446369E-2,-1.2432201E-1,-1.295365E-2,1.2389287E-1,-1.2611406E-2],"split_indices":[3,3,0,2,2,3,3,2,11,0,0,0,0,0,0,0,0],"split_type":[0,0,0,0,0,0,0,0,0,0,0,0,0,0,0,0,0],"sum_hessian":[2.875909E2,2.4211055E2,4.548036E1,8.684323E1,1.5526732E2,3.18836E1,5.4959633E1,1.647115E1,1.3879617E2,1.2248987E1,1.9634613E1,4.2411827E1,1.2547806E1,1.4366297E1,2.1048536E0,1.0422703E2,3.4569138E1],"tree_param":{"num_deleted":"0","num_feature":"26","num_nodes":"17","size_leaf_vector":"1"}},{"base_weights":[6.1652564E-2,-5.131508E-1,2.0461743E-1,-1.2870848E-1,2.0671083E-2,5.161919E-1,4.1937705E-2,8.473393E-1,-1.3205287E-1,-5.6823057E-1,3.1455857E-1,1.4112964E-1,2.6400802E-1,-1.4326045E-1,2.2505444E-2,1.2778656E-1,-7.3684186E-2],"categories":[],"categories_nodes":[],"categories_segments":[],"categories_sizes":[],"default_left":[0,0,0,0,0,0,0,0,0,0,0,0,0,0,0,0,0],"id":46,"left_children":[1,3,5,-1,-1,7,9,11,-1,13,15,-1,-1,-1,-1,-1,-1],"loss_changes":[2.688298E1,5.95438E-1,1.3241534E1,0E0,0E0,3.1850136E1,2.895623E1,3.704216E0,0E0,7.171898E-1,1.5642101E1,0E0,0E0,0E0,0E0,0E0,0E0],"parents":[2147483647,0,0,1,1,2,2,5,5,6,6,7,7,9,9,10,10],"right_children":[2,4,6,-1,-1,8,10,12,-1,14,16,-1,-1,-1,-1,-1,-1],"split_conditions":[-4.2555162E-1,1E0,-3.033072E-1,-1.2870848E-1,2.0671083E-2,3.378523E-1,1.2707815E-1,-1.6715755E-1,-1.3205287E-1,3.0698464E0,9.514537E-1,1.4112964E-1,2.6400802E-1,-1.4326045E-1,2.2505444E-2,1.2778656E-1,-7.3684186E-2],"split_indices":[3,23,2,0,0,3,3,3,0,1,3,0,0,0,0,0,0],"split_type":[0,0,0,0,0,0,0,0,0,0,0,0,0,0,0,0,0],"sum_hessian":[3.248586E2,6.418949E1,2.6066913E2,6.2822395E1,1.3670973E0,8.866989E1,1.7199924E2,6.767121E1,2.0998676E1,5.278154E1,1.1921769E2,3.310095E1,3.4570263E1,5.1438858E1,1.3426824E0,8.914951E1,3.0068174E1],"tree_param":{"num_deleted":"0","num_feature":"26","num_nodes":"17","size_leaf_vector":"1"}},{"base_weights":[-6.5697044E-2,-5.184584E-1,3.329507E-1,-1.2869598E-1,-2.2458556E-1,-4.532851E-1,4.848651E-1,-9.6350975E-2,5.2688222E-2,2.9328989E-2,-1.2076726E-1,1.6150044E-1,6.547281E-1,1.8196476E-1,-1.2760615E-1,-8.971408E-2,1.6741662E-1],"categories":[],"categories_nodes":[],"categories_segments":[],"categories_sizes":[],"default_left":[0,0,0,0,0,0,0,0,0,0,0,0,0,0,0,0,0],"id":47,"left_children":[1,3,5,-1,7,9,11,-1,-1,-1,-1,13,15,-1,-1,-1,-1],"loss_changes":[4.2235046E1,1.6394234E-1,1.509445E1,0E0,4.536314E-1,5.5124044E-1,5.6536083E0,0E0,0E0,0E0,0E0,1.53493185E1,2.4293957E0,0E0,0E0,0E0,0E0],"parents":[2147483647,0,0,1,1,2,2,4,4,5,5,6,6,11,11,12,12],"right_children":[2,4,6,-1,8,10,12,-1,-1,-1,-1,14,16,-1,-1,-1,-1],"split_conditions":[4.5579723E-1,1E0,1E0,-1.2869598E-1,-1.6487736E-1,5.9556395E-1,8.8900983E-1,-9.6350975E-2,5.2688222E-2,2.9328989E-2,-1.2076726E-1,3.4264672E-1,-5.383396E-1,1.8196476E-1,-1.2760615E-1,-8.971408E-2,1.6741662E-1],"split_indices":[3,13,0,0,3,3,3,0,0,0,0,2,1,0,0,0,0],"split_type":[0,0,0,0,0,0,0,0,0,0,0,0,0,0,0,0,0],"sum_hessian":[2.3204277E2,1.085066E2,1.2353616E2,1.0458991E2,3.9166884E0,1.9682938E1,1.03853226E2,2.900157E0,1.0165313E0,1.1993297E0,1.8483606E1,3.6437904E1,6.741531E1,1.9611704E1,1.6826202E1,1.6730397E0,6.574228E1],"tree_param":{"num_deleted":"0","num_feature":"26","num_nodes":"17","size_leaf_vector":"1"}},{"base_weights":[-2.687918E-2,-1.2806773E-1,4.121229E-1,-1.1986271E-1,5.07424E-1,5.8506364E-1,-3.8099676E-1,-1.00571364E-1,1.5262394E-1,-1.16123006E-1,5.0660525E-2],"categories":[],"categories_nodes":[],"categories_segments":[],"categories_sizes":[],"default_left":[0,0,0,0,0,0,0,0,0,0,0],"id":48,"left_children":[1,-1,3,-1,5,7,9,-1,-1,-1,-1],"loss_changes":[5.026916E1,0E0,1.0773266E1,0E0,7.885607E0,4.367855E0,6.3024485E-1,0E0,0E0,0E0,0E0],"parents":[2147483647,0,0,2,2,4,4,5,5,6,6],"right_children":[2,-1,4,-1,6,8,10,-1,-1,-1,-1],"split_conditions":[1.0895194E0,-1.2806773E-1,1E0,-1.1986271E-1,1E0,1E0,1.6342529E0,-1.00571364E-1,1.5262394E-1,-1.16123006E-1,5.0660525E-2],"split_indices":[6,0,19,0,0,4,2,0,0,0,0],"split_type":[0,0,0,0,0,0,0,0,0,0,0],"sum_hessian":[2.2804784E2,1.0677818E2,1.21269646E2,1.1178501E1,1.1009115E2,1.01557434E2,8.533711E0,3.576957E0,9.798048E1,7.515716E0,1.0179949E0],"tree_param":{"num_deleted":"0","num_feature":"26","num_nodes":"11","size_leaf_vector":"1"}},{"base_weights":[-2.1376872E-2,4.879663E-1,-5.01807E-1,5.714858E-1,2.690392E-1,-1.915207E-1,-1.282425E-1,5.867591E-1,-1.1133531E-2,-1.4433108E-1,6.0512483E-1,-1.1308041E-1,3.4563786E-1,8.4363095E-2,1.5088087E-1,-7.076836E-2,5.547123E-2,-7.956944E-2,1.719945E-1,-8.221842E-2,2.4287498E-1],"categories":[],"categories_nodes":[],"categories_segments":[],"categories_sizes":[],"default_left":[0,0,0,0,0,0,0,0,0,0,0,0,0,0,0,0,0,0,0,0,0],"id":49,"left_children":[1,3,5,7,9,11,-1,13,-1,15,17,-1,19,-1,-1,-1,-1,-1,-1,-1,-1],"loss_changes":[5.577417E1,1.8695393E0,7.569351E-1,7.733097E-1,4.5950565E0,1.5981853E0,0E0,3.714218E-1,0E0,8.966994E-1,1.905334E0,0E0,2.0556512E0,0E0,0E0,0E0,0E0,0E0,0E0,0E0,0E0],"parents":[2147483647,0,0,1,1,2,2,3,3,4,4,5,5,7,7,9,9,10,10,12,12],"right_children":[2,4,6,8,10,12,-1,14,-1,16,18,-1,20,-1,-1,-1,-1,-1,-1,-1,-1],"split_conditions":[-9.231751E-1,-1.1880628E0,-7.958799E-1,1E0,1E0,1E0,-1.282425E-1,-2.1846366E0,-1.1133531E-2,3.89999E-1,1E0,-1.1308041E-1,-3.4217468E-1,8.4363095E-2,1.5088087E-1,-7.076836E-2,5.547123E-2,-7.956944E-2,1.719945E-1,-8.221842E-2,2.4287498E-1],"split_indices":[3,3,3,21,21,0,0,7,0,7,0,0,1,0,0,0,0,0,0,0,0],"split_type":[0,0,0,0,0,0,0,0,0,0,0,0,0,0,0,0,0,0,0,0,0],"sum_hessian":[2.2592459E2,1.09654854E2,1.16269745E2,7.8208374E1,3.1446476E1,8.851999E0,1.0741775E2,7.6367424E1,1.8409492E0,1.4357699E1,1.7088776E1,5.96964E0,2.8823593E0,1.0171353E1,6.6196075E1,1.0473787E1,3.8839114E0,1.4299321E0,1.5658844E1,1.6400138E0,1.2423456E0],"tree_param":{"num_deleted":"0","num_feature":"26","num_nodes":"21","size_leaf_vector":"1"}},{"base_weights":[-1.091211E-3,2.1607292E-1,-4.101563E-1,1.6532454E-1,6.620963E-1,2.4507172E-1,-4.7465327E-1,1.9483082E-1,-1.1940838E-1,7.301329E-1,-2.7582807E-2,-9.745394E-2,5.451314E-1,-4.9515563E-1,1.8717217E-1,6.149583E-2,-4.3859612E-2,2.1411742E-1,6.278688E-2,2.1642241E-1,-3.4499038E-2,-4.3557383E-2,-1.2667733E-1,-7.9696454E-2,1.4652508E-1],"categories":[],"categories_nodes":[],"categories_segments":[],"categories_sizes":[],"default_left":[0,0,0,0,0,0,0,0,0,0,0,0,0,0,0,0,0,0,0,0,0,0,0,0,0],"id":50,"left_children":[1,3,5,7,9,11,13,15,-1,17,-1,-1,19,21,23,-1,-1,-1,-1,-1,-1,-1,-1,-1,-1],"loss_changes":[2.311533E1,3.737935E0,3.9296284E0,3.0682988E0,9.8064804E-1,1.9084595E0,1.2119617E0,3.21064E0,0E0,8.7248707E-1,0E0,0E0,1.6231781E0,5.1272964E-1,8.7591946E-1,0E0,0E0,0E0,0E0,0E0,0E0,0E0,0E0,0E0,0E0],"parents":[2147483647,0,0,1,1,2,2,3,3,4,4,5,5,6,6,7,7,9,9,12,12,13,13,14,14],"right_children":[2,4,6,8,10,12,14,16,-1,18,-1,-1,20,22,24,-1,-1,-1,-1,-1,-1,-1,-1,-1,-1],"split_conditions":[-3.5555863E-1,2.318995E0,1E0,1.1475139E0,1.4351242E0,7.378985E-1,1E0,-5.4075843E-1,-1.1940838E-1,1E0,-2.7582807E-2,-9.745394E-2,-5.0037153E-2,-2.1846366E0,-1.721322E-2,6.149583E-2,-4.3859612E-2,2.1411742E-1,6.278688E-2,2.1642241E-1,-3.4499038E-2,-4.3557383E-2,-1.2667733E-1,-7.9696454E-2,1.4652508E-1],"split_indices":[3,11,15,11,2,2,25,3,0,14,0,0,3,7,11,0,0,0,0,0,0,0,0,0,0],"split_type":[0,0,0,0,0,0,0,0,0,0,0,0,0,0,0,0,0,0,0,0,0,0,0,0,0],"sum_hessian":[2.5820972E2,1.6897578E2,8.923393E1,1.5294447E2,1.6031307E1,7.745654E0,8.148827E1,1.4701895E2,5.925529E0,1.4790988E1,1.240319E0,2.3560336E0,5.389621E0,7.928401E1,2.2042665E0,1.27852875E2,1.9166079E1,1.063064E1,4.160348E0,3.4044476E0,1.9851729E0,6.136924E0,7.314709E1,1.0759883E0,1.1282784E0],"tree_param":{"num_deleted":"0","num_feature":"26","num_nodes":"25","size_leaf_vector":"1"}},{"base_weights":[2.4276696E-2,1.439123E-1,-4.856572E-1,-1.5580206E-1,2.7092248E-1,-5.021397E-1,4.1075014E-2,-2.4403454E-1,7.208071E-1,3.4993654E-1,-4.6033913E-1,5.081003E-2,-1.2696362E-1,-1.0269422E-1,9.6040994E-2,2.1986817E-1,1.8942236E-3,-8.168385E-3,1.0234109E-1,7.421469E-2,-1.3751969E-1],"categories":[],"categories_nodes":[],"categories_segments":[],"categories_sizes":[],"default_left":[0,0,0,0,0,0,0,0,0,0,0,0,0,0,0,0,0,0,0,0,0],"id":51,"left_children":[1,3,5,7,9,11,-1,13,15,17,19,-1,-1,-1,-1,-1,-1,-1,-1,-1,-1],"loss_changes":[1.765894E1,8.96122E0,6.774864E-1,5.6188226E0,9.690586E0,7.974167E-1,0E0,7.450727E0,8.5111547E-1,3.9854145E0,1.4720328E0,0E0,0E0,0E0,0E0,0E0,0E0,0E0,0E0,0E0,0E0],"parents":[2147483647,0,0,1,1,2,2,3,3,4,4,5,5,7,7,8,8,9,9,10,10],"right_children":[2,4,6,8,10,12,-1,14,16,18,20,-1,-1,-1,-1,-1,-1,-1,-1,-1,-1],"split_conditions":[1.2707815E-1,-7.3082423E-1,6.991282E-1,1.7288097E0,1.808034E0,1E0,4.1075014E-2,1E0,1.0119886E0,1E0,1E0,5.081003E-2,-1.2696362E-1,-1.0269422E-1,9.6040994E-2,2.1986817E-1,1.8942236E-3,-8.168385E-3,1.0234109E-1,7.421469E-2,-1.3751969E-1],"split_indices":[3,3,7,1,1,15,0,10,6,5,5,0,0,0,0,0,0,0,0,0,0],"split_type":[0,0,0,0,0,0,0,0,0,0,0,0,0,0,0,0,0,0,0,0,0],"sum_hessian":[2.8731555E2,2.3329903E2,5.4016506E1,6.93716E1,1.6392743E2,5.2914894E1,1.101613E0,6.3683357E1,5.688244E0,1.4841266E2,1.5514775E1,1.046387E0,5.1868507E1,5.0130165E1,1.355319E1,4.331893E0,1.3563509E0,2.2805923E1,1.25606735E2,1.6112978E0,1.3903478E1],"tree_param":{"num_deleted":"0","num_feature":"26","num_nodes":"21","size_leaf_vector":"1"}},{"base_weights":[1.1179837E-2,9.541757E-2,-1.2436465E-1,-4.4496405E-1,1.878145E-1,1.7713507E-1,-1.2625565E-1,6.641502E-2,3.4221104E-1,3.4906235E-2,-1.1671844E-1,-4.028553E-3,1.2410585E-1],"categories":[],"categories_nodes":[],"categories_segments":[],"categories_sizes":[],"default_left":[0,0,0,0,0,0,0,0,0,0,0,0,0],"id":52,"left_children":[1,3,-1,5,7,-1,-1,9,11,-1,-1,-1,-1],"loss_changes":[1.2197231E1,1.2029566E1,0E0,3.356121E0,3.8201761E0,0E0,0E0,4.90716E0,5.3749733E0,0E0,0E0,0E0,0E0],"parents":[2147483647,0,0,1,1,3,3,4,4,7,7,8,8],"right_children":[2,4,-1,6,8,-1,-1,10,12,-1,-1,-1,-1],"split_conditions":[5.9556395E-1,-8.85334E-1,-1.2436465E-1,-2.1723363E0,-1.1911714E-1,1.7713507E-1,-1.2625565E-1,1.0785604E0,-2.634879E-1,3.4906235E-2,-1.1671844E-1,-4.028553E-3,1.2410585E-1],"split_indices":[3,3,0,2,1,0,0,2,2,0,0,0,0],"split_type":[0,0,0,0,0,0,0,0,0,0,0,0,0],"sum_hessian":[2.7598706E2,2.3825674E2,3.773031E1,3.423255E1,2.0402419E2,1.4647977E0,3.2767754E1,1.1501775E2,8.900643E1,1.0148317E2,1.353458E1,2.8468601E1,6.053783E1],"tree_param":{"num_deleted":"0","num_feature":"26","num_nodes":"13","size_leaf_vector":"1"}},{"base_weights":[4.3150544E-2,-5.044806E-1,1.662626E-1,-1.2714131E-1,2.4171557E-2,7.324564E-1,9.132642E-2,1.9644117E-1,-8.169959E-2,-4.782177E-1,1.9145657E-1,1.5272145E-1,-1.4627787E-1,1.0975896E-1,-2.652596E-2],"categories":[],"categories_nodes":[],"categories_segments":[],"categories_sizes":[],"default_left":[0,0,0,0,0,0,0,0,0,0,0,0,0,0,0],"id":53,"left_children":[1,3,5,-1,-1,7,9,-1,-1,11,13,-1,-1,-1,-1],"loss_changes":[2.0529287E1,6.043472E-1,1.0470007E1,0E0,0E0,2.4982433E0,1.2664122E1,0E0,0E0,4.817585E0,1.4633631E1,0E0,0E0,0E0,0E0],"parents":[2147483647,0,0,1,1,2,2,5,5,6,6,9,9,10,10],"right_children":[2,4,6,-1,-1,8,10,-1,-1,12,14,-1,-1,-1,-1],"split_conditions":[-4.2555162E-1,1E0,-1.0186756E0,-1.2714131E-1,2.4171557E-2,-1.2798104E-1,-1.6715755E-1,1.9644117E-1,-8.169959E-2,-7.574153E-1,-8.578279E-2,1.5272145E-1,-1.4627787E-1,1.0975896E-1,-2.652596E-2],"split_indices":[3,23,2,0,0,3,3,0,0,2,1,0,0,0,0],"split_type":[0,0,0,0,0,0,0,0,0,0,0,0,0,0,0],"sum_hessian":[3.022544E2,5.4908928E1,2.4734546E2,5.3591095E1,1.3178312E0,2.7884521E1,2.1946094E2,2.6345274E1,1.5392473E0,3.2249363E1,1.8721158E2,2.774827E0,2.9474535E1,1.0036782E2,8.684376E1],"tree_param":{"num_deleted":"0","num_feature":"26","num_nodes":"15","size_leaf_vector":"1"}},{"base_weights":[-4.6837665E-2,-5.020561E-1,3.3184505E-1,-1.2718514E-1,-1.9285011E-1,-4.3572983E-1,4.6418944E-1,1.6301335E-1,-1.0888966E-1,4.0467184E-2,-1.184455E-1,6.2970746E-1,2.2898142E-1,1.6059697E-1,-1.3553673E-2,-1.2853724E-1,1.3680823E-1],"categories":[],"categories_nodes":[],"categories_segments":[],"categories_sizes":[],"default_left":[0,0,0,0,0,0,0,0,0,0,0,0,0,0,0,0,0],"id":54,"left_children":[1,3,5,-1,7,9,11,-1,-1,-1,-1,13,15,-1,-1,-1,-1],"loss_changes":[3.582186E1,4.532776E-1,1.1733324E1,0E0,1.8333099E0,5.9294033E-1,3.6439323E0,0E0,0E0,0E0,0E0,1.1296673E0,1.0754744E1,0E0,0E0,0E0,0E0],"parents":[2147483647,0,0,1,1,2,2,4,4,5,5,6,6,11,11,12,12],"right_children":[2,4,6,-1,8,10,12,-1,-1,-1,-1,14,16,-1,-1,-1,-1],"split_conditions":[4.5579723E-1,2.4989891E-1,1E0,-1.2718514E-1,-1.6027465E0,-1.6245221E0,7.8319085E-1,1.6301335E-1,-1.0888966E-1,4.0467184E-2,-1.184455E-1,1.0895194E0,9.514537E-1,1.6059697E-1,-1.3553673E-2,-1.2853724E-1,1.3680823E-1],"split_indices":[3,3,0,0,9,9,2,0,0,0,0,6,3,0,0,0,0],"split_type":[0,0,0,0,0,0,0,0,0,0,0,0,0,0,0,0,0],"sum_hessian":[2.05837E2,9.332466E1,1.12512344E2,8.728016E1,6.0445013E0,1.6209223E1,9.630312E1,1.001996E0,5.042505E0,1.0540797E0,1.5155144E1,5.5541107E1,4.0762016E1,5.3382927E1,2.158181E0,1.2250499E1,2.8511517E1],"tree_param":{"num_deleted":"0","num_feature":"26","num_nodes":"17","size_leaf_vector":"1"}},{"base_weights":[-3.7358847E-2,-1.2722436E-1,4.079195E-1,1.5412755E-1,-4.5918527E-1,-1.2225889E-1,2.911978E-2],"categories":[],"categories_nodes":[],"categories_segments":[],"categories_sizes":[],"default_left":[0,0,0,0,0,0,0],"id":55,"left_children":[1,-1,3,-1,5,-1,-1],"loss_changes":[4.34113E1,0E0,2.0634104E1,0E0,5.92361E-1,0E0,0E0],"parents":[2147483647,0,0,2,2,4,4],"right_children":[2,-1,4,-1,6,-1,-1],"split_conditions":[5.9046876E-1,-1.2722436E-1,1E0,1.5412755E-1,1.601044E0,-1.2225889E-1,2.911978E-2],"split_indices":[3,0,0,0,3,0,0],"split_type":[0,0,0,0,0,0,0],"sum_hessian":[1.995087E2,9.553201E1,1.03976685E2,8.2884705E1,2.1091982E1,1.9799715E1,1.2922671E0],"tree_param":{"num_deleted":"0","num_feature":"26","num_nodes":"7","size_leaf_vector":"1"}},{"base_weights":[-3.0187905E-2,4.438948E-1,-4.939621E-1,2.1286821E-1,6.0394496E-1,-1.2713858E-1,-7.6605774E-2,5.1897514E-1,-4.2246106E-1,1.5108736E-1,3.1185752E-2,2.4808672E-1,-1.0914373E-1,3.6406763E-2,1.5279062E-1,-1.2361608E-1,-2.3495747E-2],"categories":[],"categories_nodes":[],"categories_segments":[],"categories_sizes":[],"default_left":[0,0,0,0,0,0,0,0,0,0,0,0,0,0,0,0,0],"id":56,"left_children":[1,3,5,7,9,-1,11,13,15,-1,-1,-1,-1,-1,-1,-1,-1],"loss_changes":[4.432808E1,3.5591087E0,1.1035042E0,8.457389E0,3.383789E-1,0E0,3.4266436E0,1.0552573E0,3.4358048E-1,0E0,0E0,0E0,0E0,0E0,0E0,0E0,0E0],"parents":[2147483647,0,0,1,1,2,2,3,3,4,4,6,6,7,7,8,8],"right_children":[2,4,6,8,10,-1,12,14,16,-1,-1,-1,-1,-1,-1,-1,-1],"split_conditions":[-9.231751E-1,-4.3826833E-1,1.6342529E0,-1.3779885E0,1E0,-1.2713858E-1,-7.958799E-1,-7.7077955E-1,-6.560032E-1,1.5108736E-1,3.1185752E-2,2.4808672E-1,-1.0914373E-1,3.6406763E-2,1.5279062E-1,-1.2361608E-1,-2.3495747E-2],"split_indices":[3,2,2,3,13,0,3,6,2,0,0,0,0,0,0,0,0],"split_type":[0,0,0,0,0,0,0,0,0,0,0,0,0,0,0,0,0],"sum_hessian":[1.9961557E2,9.873194E1,1.0088363E2,4.1360126E1,5.737182E1,9.454425E1,6.3393836E0,2.803552E1,1.3324607E1,5.5326996E1,2.0448203E0,1.1637303E0,5.1756535E0,6.8268003E0,2.120872E1,1.0157708E1,3.1668987E0],"tree_param":{"num_deleted":"0","num_feature":"26","num_nodes":"17","size_leaf_vector":"1"}},{"base_weights":[3.2737083E-3,2.0440048E-1,-4.0145758E-1,1.7032372E-2,3.0914268E-1,-4.9331528E-1,-1.0316422E-1,3.8162312E-1,-1.3956486E-1,5.1547337E-1,1.5865153E-1,-9.361207E-2,-1.2666774E-1,3.0986977E-1,-4.5955977E-1,1.1790368E-1,-5.238361E-2,1.4238065E-1,-7.971332E-2,-1.3001782E-1,7.7167034E-2,-9.608455E-2,9.233283E-2,-1.2183291E-1,1.4387262E-2],"categories":[],"categories_nodes":[],"categories_segments":[],"categories_sizes":[],"default_left":[0,0,0,0,0,0,0,0,0,0,0,0,0,0,0,0,0,0,0,0,0,0,0,0,0],"id":57,"left_children":[1,3,5,7,9,11,13,15,-1,17,19,21,-1,-1,23,-1,-1,-1,-1,-1,-1,-1,-1,-1,-1],"loss_changes":[2.0341366E1,3.2706194E0,2.2221928E0,1.3293901E1,3.2409754E0,5.979166E-1,1.0756717E1,2.4140844E0,0E0,2.7424784E0,7.062079E0,8.600176E-1,0E0,0E0,3.830855E-1,0E0,0E0,0E0,0E0,0E0,0E0,0E0,0E0,0E0,0E0],"parents":[2147483647,0,0,1,1,2,2,3,3,4,4,5,5,6,6,7,7,9,9,10,10,11,11,14,14],"right_children":[2,4,6,8,10,12,14,16,-1,18,20,22,-1,-1,24,-1,-1,-1,-1,-1,-1,-1,-1,-1,-1],"split_conditions":[-4.2555162E-1,-2.528222E-2,1.0597496E0,-1.1950413E0,-1.721322E-2,-3.5555863E-1,-7.358862E-2,2.824307E-1,-1.3956486E-1,1E0,1.1466641E0,3.9679495E-1,-1.2666774E-1,3.0986977E-1,1.279485E0,1.1790368E-1,-5.238361E-2,1.4238065E-1,-7.971332E-2,-1.3001782E-1,7.7167034E-2,-9.608455E-2,9.233283E-2,-1.2183291E-1,1.4387262E-2],"split_indices":[3,11,2,11,11,3,3,1,0,16,11,2,0,0,11,0,0,0,0,0,0,0,0,0,0],"split_type":[0,0,0,0,0,0,0,0,0,0,0,0,0,0,0,0,0,0,0,0,0,0,0,0,0],"sum_hessian":[2.478788E2,1.6592111E2,8.1957695E1,5.9911324E1,1.0600978E2,6.2161606E1,1.9796091E1,3.7217438E1,2.2693886E1,4.3687206E1,6.2322575E1,4.0230436E0,5.813856E1,3.5524244E0,1.6243668E1,3.1970322E1,5.247116E0,4.0715122E1,2.9720864E0,1.1121186E1,5.1201385E1,2.5607305E0,1.4623133E0,1.5127013E1,1.1166537E0],"tree_param":{"num_deleted":"0","num_feature":"26","num_nodes":"25","size_leaf_vector":"1"}},{"base_weights":[1.2339472E-2,1.0682113E-1,-1.2415919E-1,-1.2040033E-1,1.5021373E-1,-7.77369E-2,2.5633425E-1,8.193101E-2,-6.994686E-2,-3.132794E-2,7.85283E-2],"categories":[],"categories_nodes":[],"categories_segments":[],"categories_sizes":[],"default_left":[0,0,0,0,0,0,0,0,0,0,0],"id":58,"left_children":[1,3,-1,-1,5,7,9,-1,-1,-1,-1],"loss_changes":[1.3397687E1,6.070488E0,0E0,0E0,5.233552E0,6.0723143E0,3.7454805E0,0E0,0E0,0E0,0E0],"parents":[2147483647,0,0,1,1,4,4,5,5,6,6],"right_children":[2,4,-1,-1,6,8,10,-1,-1,-1,-1],"split_conditions":[1.581696E-1,-1.263745E0,-1.2415919E-1,-1.2040033E-1,1E0,-8.27059E-1,-8.27059E-1,8.193101E-2,-6.994686E-2,-3.132794E-2,7.85283E-2],"split_indices":[3,3,0,0,19,1,1,0,0,0,0],"split_type":[0,0,0,0,0,0,0,0,0,0,0],"sum_hessian":[2.7007635E2,2.2928932E2,4.0787045E1,1.4763298E1,2.1452602E2,6.823096E1,1.4629506E2,2.269504E1,4.553592E1,2.1111015E1,1.25184044E2],"tree_param":{"num_deleted":"0","num_feature":"26","num_nodes":"11","size_leaf_vector":"1"}},{"base_weights":[1.8400252E-3,7.353818E-2,-1.2275903E-1,-1.226877E-1,1.4025348E-1,2.2157133E-1,-1.5162258E-1,-1.3240108E-4,9.9429406E-2,1.0763879E-1,-1.08210206E-1],"categories":[],"categories_nodes":[],"categories_segments":[],"categories_sizes":[],"default_left":[0,0,0,0,0,0,0,0,0,0,0],"id":59,"left_children":[1,3,-1,-1,5,7,9,-1,-1,-1,-1],"loss_changes":[9.426104E0,8.836199E0,0E0,0E0,4.9030437E0,6.637562E0,8.025176E0,0E0,0E0,0E0,0E0],"parents":[2147483647,0,0,1,1,4,4,5,5,6,6],"right_children":[2,4,-1,-1,6,8,10,-1,-1,-1,-1],"split_conditions":[5.9556395E-1,-9.9885726E-1,-1.2275903E-1,-1.226877E-1,1.1466641E0,-5.6268103E-2,2.5154498E-1,-1.3240108E-4,9.9429406E-2,1.0763879E-1,-1.08210206E-1],"split_indices":[3,3,0,0,11,2,2,0,0,0,0],"split_type":[0,0,0,0,0,0,0,0,0,0,0],"sum_hessian":[2.584421E2,2.2704535E2,3.1396757E1,2.288404E1,2.041613E2,1.5986356E2,4.4297756E1,7.326238E1,8.6601166E1,1.4443155E1,2.98546E1],"tree_param":{"num_deleted":"0","num_feature":"26","num_nodes":"11","size_leaf_vector":"1"}},{"base_weights":[5.235494E-2,-4.980333E-1,1.679227E-1,-1.2591967E-1,2.0997772E-2,4.204449E-1,-2.9342445E-3,6.516992E-1,-4.8306563E-1,-5.634509E-1,2.859566E-1,8.156006E-2,2.1521705E-1,3.493523E-2,-1.2773474E-1,-7.716361E-2,-1.4229213E-1,1.0005126E-1,-1.0574734E-1],"categories":[],"categories_nodes":[],"categories_segments":[],"categories_sizes":[],"default_left":[0,0,0,0,0,0,0,0,0,0,0,0,0,0,0,0,0,0,0],"id":60,"left_children":[1,3,5,-1,-1,7,9,11,13,15,17,-1,-1,-1,-1,-1,-1,-1,-1],"loss_changes":[1.8399136E1,5.672283E-1,1.0301096E1,0E0,0E0,2.0445415E1,2.3378336E1,5.3392563E0,5.839634E-1,5.2309036E-2,8.669206E0,0E0,0E0,0E0,0E0,0E0,0E0,0E0,0E0],"parents":[2147483647,0,0,1,1,2,2,5,5,6,6,7,7,8,8,9,9,10,10],"right_children":[2,4,6,-1,-1,8,10,12,14,16,18,-1,-1,-1,-1,-1,-1,-1,-1],"split_conditions":[-4.2555162E-1,1E0,-7.9399064E-2,-1.2591967E-1,2.0997772E-2,3.9655215E-1,1.7679195E-1,-1.896548E-1,4.722744E-1,1E0,1.2264239E0,8.156006E-2,2.1521705E-1,3.493523E-2,-1.2773474E-1,-7.716361E-2,-1.4229213E-1,1.0005126E-1,-1.0574734E-1],"split_indices":[3,23,2,0,0,3,3,3,6,4,3,0,0,0,0,0,0,0,0],"split_type":[0,0,0,0,0,0,0,0,0,0,0,0,0,0,0,0,0,0,0],"sum_hessian":[2.8694733E2,4.9221565E1,2.3772575E2,4.7877132E1,1.3444327E0,9.534601E1,1.4237975E2,7.61373E1,1.9208704E1,4.810135E1,9.4278404E1,3.300967E1,4.3127632E1,1.0051533E0,1.820355E1,4.769864E0,4.3331486E1,8.0787415E1,1.3490988E1],"tree_param":{"num_deleted":"0","num_feature":"26","num_nodes":"19","size_leaf_vector":"1"}},{"base_weights":[-6.2742114E-2,-5.046777E-1,2.7722862E-1,-1.2604293E-1,-1.6879149E-1,4.2390847E-1,-2.4515396E-1,-8.588094E-2,4.2249233E-2,-1.5254322E-1,5.1347536E-1,1.21219024E-1,-3.9768553E-1,-9.594624E-2,1.07434906E-1,1.5576246E-1,7.252421E-2,-1.2475649E-1,9.707305E-2],"categories":[],"categories_nodes":[],"categories_segments":[],"categories_sizes":[],"default_left":[0,0,0,0,0,0,0,0,0,0,0,0,0,0,0,0,0,0,0],"id":61,"left_children":[1,3,5,-1,7,9,11,-1,-1,13,15,-1,17,-1,-1,-1,-1,-1,-1],"loss_changes":[2.7710537E1,2.2740364E-1,8.100494E0,0E0,3.2247096E-1,4.304288E0,2.8577983E0,0E0,0E0,1.851993E0,1.7270393E0,0E0,2.012503E0,0E0,0E0,0E0,0E0,0E0,0E0],"parents":[2147483647,0,0,1,1,2,2,4,4,5,5,6,6,9,9,10,10,12,12],"right_children":[2,4,6,-1,8,10,12,-1,-1,14,16,-1,18,-1,-1,-1,-1,-1,-1],"split_conditions":[4.1828206E-1,1E0,1.0895194E0,-1.2604293E-1,-4.2555162E-1,-2.8811252E-1,8.717195E-3,-8.588094E-2,4.2249233E-2,1.4709063E-1,7.8319085E-1,1.21219024E-1,1.6391108E0,-9.594624E-2,1.07434906E-1,1.5576246E-1,7.252421E-2,-1.2475649E-1,9.707305E-2],"split_indices":[3,13,6,0,3,1,7,0,0,6,2,0,9,0,0,0,0,0,0],"split_type":[0,0,0,0,0,0,0,0,0,0,0,0,0,0,0,0,0,0,0],"sum_hessian":[1.8250423E2,7.914169E1,1.0336254E2,7.596162E1,3.1800778E0,8.084935E1,2.2513187E1,2.0522084E0,1.1278694E0,1.0778149E1,7.0071205E1,3.4551585E0,1.905803E1,7.906348E0,2.8718011E0,4.3222607E1,2.6848595E1,1.6992552E1,2.065477E0],"tree_param":{"num_deleted":"0","num_feature":"26","num_nodes":"19","size_leaf_vector":"1"}},{"base_weights":[-4.3806944E-2,-1.2609626E-1,3.9110312E-1,1.4670514E-1,-4.4396025E-1,-1.2033525E-1,3.839807E-2],"categories":[],"categories_nodes":[],"categories_segments":[],"categories_sizes":[],"default_left":[0,0,0,0,0,0,0],"id":62,"left_children":[1,-1,3,-1,5,-1,-1],"loss_changes":[3.5609074E1,0E0,1.6088406E1,0E0,6.2890553E-1,0E0,0E0],"parents":[2147483647,0,0,2,2,4,4],"right_children":[2,-1,4,-1,6,-1,-1],"split_conditions":[5.9046876E-1,-1.2609626E-1,1E0,1.4670514E-1,1.601044E0,-1.2033525E-1,3.839807E-2],"split_indices":[3,0,0,0,3,0,0],"split_type":[0,0,0,0,0,0,0],"sum_hessian":[1.71201E2,8.193962E1,8.926138E1,7.155505E1,1.7706327E1,1.6538097E1,1.16823E0],"tree_param":{"num_deleted":"0","num_feature":"26","num_nodes":"7","size_leaf_vector":"1"}},{"base_weights":[-4.008158E-2,4.037225E-1,-4.8585796E-1,1.6931829E-1,5.852182E-1,-1.2601899E-1,-7.240332E-2,4.617933E-1,-4.157143E-1,3.8250723E-1,1.5511627E-1,2.193059E-1,-1.0716278E-1,1.1883539E-2,1.4731997E-1,-1.20813E-1,-1.5164397E-2,1.3927254E-1,-9.6943565E-2],"categories":[],"categories_nodes":[],"categories_segments":[],"categories_sizes":[],"default_left":[0,0,0,0,0,0,0,0,0,0,0,0,0,0,0,0,0,0,0],"id":63,"left_children":[1,3,5,7,9,-1,11,13,15,17,-1,-1,-1,-1,-1,-1,-1,-1,-1],"loss_changes":[3.4641903E1,3.6360025E0,1.0603695E0,6.9883895E0,2.568226E-1,0E0,2.937446E0,1.5489106E0,3.5484815E-1,2.024254E0,0E0,0E0,0E0,0E0,0E0,0E0,0E0,0E0,0E0],"parents":[2147483647,0,0,1,1,2,2,3,3,4,4,6,6,7,7,8,8,9,9],"right_children":[2,4,6,8,10,-1,12,14,16,18,-1,-1,-1,-1,-1,-1,-1,-1,-1],"split_conditions":[-9.231751E-1,-4.3826833E-1,1.6342529E0,-1.3779885E0,-1.2236318E-2,-1.2601899E-1,-7.958799E-1,-7.7077955E-1,3.89999E-1,-1.1880628E0,1.5511627E-1,2.193059E-1,-1.0716278E-1,1.1883539E-2,1.4731997E-1,-1.20813E-1,-1.5164397E-2,1.3927254E-1,-9.6943565E-2],"split_indices":[3,2,2,3,2,0,3,6,7,3,0,0,0,0,0,0,0,0,0],"split_type":[0,0,0,0,0,0,0,0,0,0,0,0,0,0,0,0,0,0,0],"sum_hessian":[1.7311145E2,8.679491E1,8.631654E1,3.872017E1,4.8074734E1,8.0171684E1,6.14486E0,2.5955103E1,1.2765067E1,1.1260795E1,3.681394E1,1.2867475E0,4.8581123E0,6.973469E0,1.8981634E1,1.010193E1,2.6631374E0,9.288573E0,1.9722211E0],"tree_param":{"num_deleted":"0","num_feature":"26","num_nodes":"19","size_leaf_vector":"1"}},{"base_weights":[1.4808467E-2,1.9296886E-1,-3.7351486E-1,2.6122776E-1,-7.941629E-2,-1.6738576E-1,-4.9369392E-1,1.2628193E-1,4.784829E-1,-1.3226204E-1,2.7249062E-1,-4.22751E-1,6.3468136E-2,-1.2425159E-1,1.6351402E-2,8.008288E-2,-1.3206428E-1,2.7754318E-2,1.3826433E-1,-1.1532038E-2,1.1962699E-1,-1.1748431E-1,7.950266E-3,1.0417297E-1,-4.6922386E-2],"categories":[],"categories_nodes":[],"categories_segments":[],"categories_sizes":[],"default_left":[0,0,0,0,0,0,0,0,0,0,0,0,0,0,0,0,0,0,0,0,0,0,0,0,0],"id":64,"left_children":[1,3,5,7,9,11,13,15,17,-1,19,21,23,-1,-1,-1,-1,-1,-1,-1,-1,-1,-1,-1,-1],"loss_changes":[1.5693181E1,2.9107723E0,1.6849346E0,3.590355E0,5.3410263E0,1.6652293E0,4.1712856E-1,1.0704169E1,1.4547701E0,0E0,1.3302429E0,3.7093544E-1,1.5187441E0,0E0,0E0,0E0,0E0,0E0,0E0,0E0,0E0,0E0,0E0,0E0,0E0],"parents":[2147483647,0,0,1,1,2,2,3,3,4,4,5,5,6,6,7,7,8,8,10,10,11,11,12,12],"right_children":[2,4,6,8,10,12,14,16,18,-1,20,22,24,-1,-1,-1,-1,-1,-1,-1,-1,-1,-1,-1,-1],"split_conditions":[-4.2555162E-1,5.740512E-1,-5.0037153E-2,5.487832E-1,2.1824565E0,1E0,1.4481864E0,-1.0827174E0,-1.2821243E0,-1.3226204E-1,-1.1738151E0,1.61319E0,-5.1212007E-1,-1.2425159E-1,1.6351402E-2,8.008288E-2,-1.3206428E-1,2.7754318E-2,1.3826433E-1,-1.1532038E-2,1.1962699E-1,-1.1748431E-1,7.950266E-3,1.0417297E-1,-4.6922386E-2],"split_indices":[3,12,3,12,12,0,7,12,3,0,3,9,1,0,0,0,0,0,0,0,0,0,0,0,0],"split_type":[0,0,0,0,0,0,0,0,0,0,0,0,0,0,0,0,0,0,0,0,0,0,0,0,0],"sum_hessian":[2.2479124E2,1.5443875E2,7.035249E1,1.2352478E2,3.0913973E1,2.679204E1,4.356045E1,7.717165E1,4.6353123E1,1.3125981E1,1.7787992E1,1.2326026E1,1.4466014E1,4.2490746E1,1.0697051E0,5.964373E1,1.7527925E1,9.450079E0,3.6903046E1,7.520261E0,1.0267731E1,1.0871051E1,1.4549758E0,5.699282E0,8.766732E0],"tree_param":{"num_deleted":"0","num_feature":"26","num_nodes":"25","size_leaf_vector":"1"}},{"base_weights":[4.0926762E-2,1.2591307E-1,-1.2292564E-1,-4.5116115E-1,1.6845356E-1,-7.0231087E-3,-1.1865402E-1,1.1261129E-1,5.559314E-1,6.1352987E-2,-8.236989E-2,-1.3436294E-1,2.6078787E-1],"categories":[],"categories_nodes":[],"categories_segments":[],"categories_sizes":[],"default_left":[0,0,0,0,0,0,0,0,0,0,0,0,0],"id":65,"left_children":[1,3,-1,5,7,-1,-1,9,11,-1,-1,-1,-1],"loss_changes":[1.236252E1,5.739278E0,0E0,2.2372079E-1,4.6020865E0,0E0,0E0,1.1928266E1,1.5840154E1,0E0,0E0,0E0,0E0],"parents":[2147483647,0,0,1,1,3,3,4,4,7,7,8,8],"right_children":[2,4,-1,6,8,-1,-1,10,12,-1,-1,-1,-1],"split_conditions":[1.581696E-1,-1.1906201E0,-1.2292564E-1,-2.1137602E0,1.0785604E0,-7.0231087E-3,-1.1865402E-1,-2.316742E-1,-7.358862E-2,6.1352987E-2,-8.236989E-2,-1.3436294E-1,2.6078787E-1],"split_indices":[3,3,0,2,2,0,0,3,3,0,0,0,0],"split_type":[0,0,0,0,0,0,0,0,0,0,0,0,0],"sum_hessian":[2.6477332E2,2.2969263E2,3.5080696E1,1.5110383E1,2.1458224E2,1.2934855E0,1.3816897E1,1.8868071E2,